{"learner":{"attributes":{"best_iteration":"99","best_ntree_limit":"100","scikit_learn":"{\"n_estimators\": 100, \"objective\": \"reg:squarederror\", \"max_depth\": null, \"max_leaves\": null, \"max_bin\": null, \"grow_policy\": null, \"learning_rate\": null, \"verbosity\": null, \"booster\": null, \"tree_method\": null, \"gamma\": null, \"min_child_weight\": null, \"max_delta_step\": null, \"subsample\": null, \"sampling_method\": null, \"colsample_bytree\": null, \"colsample_bylevel\": null, \"colsample_bynode\": null, \"reg_alpha\": null, \"reg_lambda\": null, \"scale_pos_weight\": null, \"base_score\": null, \"missing\": NaN, \"num_parallel_tree\": null, \"random_state\": null, \"n_jobs\": null, \"monotone_constraints\": null, \"interaction_constraints\": null, \"importance_type\": null, \"gpu_id\": null, \"validate_parameters\": null, \"predictor\": null, \"enable_categorical\": false, \"feature_types\": null, \"max_cat_to_onehot\": null, \"max_cat_threshold\": null, \"eval_metric\": null, \"early_stopping_rounds\": null, \"callbacks\": null, \"_estimator_type\": \"regressor\"}"},"feature_names":["is_weekday","year","month","category_trending_videos_last_7D","category_avg_n_views_7D","category_avg_n_comments_7D","category_view_like_ratio_7D","channel_trending_videos_last_7D","log_channel_avg_n_views_7D","log_channel_avg_n_comments_7D","log_channel_view_like_ratio_7D","category_Autos&Vehicles","category_Comedy","category_Education","category_Entertainment","category_Film&Animation","category_Gaming","category_Howto&Style","category_Music","category_News&Politics","category_People&Blogs","category_Pets&Animals","category_Science&Technology","category_Sports","category_Travel&Events"],"feature_types":["int","int","int","float","float","float","float","float","float","float","float","float","float","float","float","float","float","float","float","float","float","float","float","float","float"],"gradient_booster":{"model":{"gbtree_model_param":{"num_parallel_tree":"1","num_trees":"100","size_leaf_vector":"0"},"tree_info":[0,0,0,0,0,0,0,0,0,0,0,0,0,0,0,0,0,0,0,0,0,0,0,0,0,0,0,0,0,0,0,0,0,0,0,0,0,0,0,0,0,0,0,0,0,0,0,0,0,0,0,0,0,0,0,0,0,0,0,0,0,0,0,0,0,0,0,0,0,0,0,0,0,0,0,0,0,0,0,0,0,0,0,0,0,0,0,0,0,0,0,0,0,0,0,0,0,0,0,0],"trees":[{"base_weights":[1.299244E1,1.2098431E1,1.3940672E1,1.132646E1,1.2505761E1,1.3487622E1,1.48263235E1,1.0818881E1,1.1600233E1,1.2202294E1,1.2755952E1,1.3241917E1,1.3765748E1,1.45309E1,1.59181385E1,1.0408828E1,1.0969601E1,1.43265085E1,1.480266E1,1.5557229E1,1.6694832E1],"categories":[],"categories_nodes":[],"categories_segments":[],"categories_sizes":[],"default_left":[1,1,1,1,1,1,1,1,0,0,0,0,0,1,1,0,0,0,0,0,0],"id":0,"left_children":[1,3,5,7,9,11,13,15,-1,-1,-1,-1,-1,17,19,-1,-1,-1,-1,-1,-1],"loss_changes":[2.526E4,4.7155E3,5.63825E3,6.174375E2,6.11375E2,4.76375E2,1.35375E3,2.5E0,0E0,0E0,0E0,0E0,0E0,3.375E0,3.06875E1,0E0,0E0,0E0,0E0,0E0,0E0],"parents":[2147483647,0,0,1,1,2,2,3,3,4,4,5,5,6,6,7,7,13,13,14,14],"right_children":[2,4,6,8,10,12,14,16,-1,-1,-1,-1,-1,18,20,-1,-1,-1,-1,-1,-1],"split_conditions":[1.3418146E1,1.231502E1,1.4509575E1,1.1612504E1,1.2877726E1,1.389315E1,1.5633339E1,1.1113213E1,3.48007E0,3.6606884E0,3.8267858E0,3.9725752E0,4.1297245E0,1.4953916E1,1.6453773E1,3.1226485E0,3.2908804E0,4.2979527E0,4.4407983E0,4.667169E0,5.0084496E0],"split_indices":[8,8,8,8,8,8,8,8,0,0,0,0,0,8,8,0,0,0,0,0,0],"split_type":[0,0,0,0,0,0,0,0,0,0,0,0,0,0,0,0,0,0,0,0,0],"sum_hessian":[2.9995E4,1.5446E4,1.4549E4,5.345E3,1.0101E4,9.636E3,4.913E3,1.887E3,3.458E3,4.587E3,5.514E3,5.142E3,4.494E3,3.878E3,1.035E3,5.26E2,1.361E3,2.244E3,1.634E3,7.21E2,3.14E2],"tree_param":{"num_deleted":"0","num_feature":"25","num_nodes":"21","size_leaf_vector":"0"}},{"base_weights":[9.096171E0,8.397535E0,9.700184E0,7.8225265E0,8.649207E0,9.355601E0,1.0316496E1,7.4353466E0,7.970112E0,8.41442E0,8.817193E0,9.170296E0,9.521998E0,1.0110875E1,1.10864725E1,9.953586E0,1.0270687E1,1.0872742E1,1.1798478E1],"categories":[],"categories_nodes":[],"categories_segments":[],"categories_sizes":[],"default_left":[1,1,1,1,1,1,1,0,0,0,0,0,0,1,1,0,0,0,0],"id":1,"left_children":[1,3,5,7,9,11,13,-1,-1,-1,-1,-1,-1,15,17,-1,-1,-1,-1],"loss_changes":[1.257675E4,1.946125E3,3.318625E3,1.8342188E2,3.0725E2,2.31E2,7.994375E2,0E0,0E0,0E0,0E0,0E0,0E0,1.225E1,5.478125E1,0E0,0E0,0E0,0E0],"parents":[2147483647,0,0,1,1,2,2,3,3,4,4,5,5,6,6,13,13,14,14],"right_children":[2,4,6,8,10,12,14,-1,-1,-1,-1,-1,-1,16,18,-1,-1,-1,-1],"split_conditions":[1.3272047E1,1.213563E1,1.4355114E1,1.1395122E1,1.2690714E1,1.371995E1,1.5538324E1,2.2306042E0,2.3910336E0,2.524326E0,2.645158E0,2.7510889E0,2.8565996E0,1.4795146E1,1.6597256E1,2.9860759E0,3.0812063E0,3.2618227E0,3.5395436E0],"split_indices":[8,8,8,8,8,8,8,0,0,0,0,0,0,8,8,0,0,0,0],"split_type":[0,0,0,0,0,0,0,0,0,0,0,0,0,0,0,0,0,0,0],"sum_hessian":[2.9995E4,1.3915E4,1.608E4,4.246E3,9.669E3,1.0324E4,5.756E3,1.186E3,3.06E3,4.054E3,5.615E3,4.911E3,5.413E3,4.554E3,1.202E3,2.327E3,2.227E3,9.37E2,2.65E2],"tree_param":{"num_deleted":"0","num_feature":"25","num_nodes":"19","size_leaf_vector":"0"}},{"base_weights":[6.368262E0,5.972913E0,6.89885E0,5.6023183E0,6.2085395E0,6.7579184E0,7.562082E0,5.3251414E0,5.773867E0,6.0593314E0,6.33412E0,6.583251E0,6.968732E0,7.371626E0,8.059614E0,4.8633018E0,5.37124E0],"categories":[],"categories_nodes":[],"categories_segments":[],"categories_sizes":[],"default_left":[1,1,1,1,1,1,1,1,0,0,0,0,0,0,0,0,0],"id":2,"left_children":[1,3,5,7,9,11,13,15,-1,-1,-1,-1,-1,-1,-1,-1,-1],"loss_changes":[6.251E3,1.4668125E3,1.145375E3,2.875625E2,1.584375E2,3.431875E2,1.5236719E2,2.8640625E1,0E0,0E0,0E0,0E0,0E0,0E0,0E0,0E0,0E0],"parents":[2147483647,0,0,1,1,2,2,3,3,4,4,5,5,6,6,7,7],"right_children":[2,4,6,8,10,12,14,16,-1,-1,-1,-1,-1,-1,-1,-1,-1],"split_conditions":[1.3574362E1,1.2492149E1,1.5090504E1,1.1800973E1,1.3046064E1,1.4165825E1,1.6006676E1,1.0873371E1,1.7321602E0,1.8177994E0,1.900236E0,1.9749753E0,2.0906196E0,2.2114878E0,2.4178843E0,1.4589906E0,1.6113721E0],"split_indices":[8,8,8,8,8,8,8,8,0,0,0,0,0,0,0,0,0],"split_type":[0,0,0,0,0,0,0,0,0,0,0,0,0,0,0,0,0],"sum_hessian":[2.9995E4,1.7195E4,1.28E4,6.693E3,1.0502E4,1.0566E4,2.234E3,2.571E3,4.122E3,4.822E3,5.68E3,5.796E3,4.77E3,1.627E3,6.07E2,2.43E2,2.328E3],"tree_param":{"num_deleted":"0","num_feature":"25","num_nodes":"17","size_leaf_vector":"0"}},{"base_weights":[4.4583573E0,4.1029153E0,4.750605E0,3.7753768E0,4.21683E0,4.570013E0,5.050122E0,3.5633786E0,3.8392286E0,4.0990047E0,4.3022723E0,4.505979E0,4.6735015E0,4.9265695E0,5.3945684E0,3.1555157E0,3.5999575E0,4.8453574E0,4.9953914E0,5.321336E0,6.1935563E0],"categories":[],"categories_nodes":[],"categories_segments":[],"categories_sizes":[],"default_left":[1,1,1,1,1,1,1,1,0,0,0,0,0,1,1,0,0,0,0,0,0],"id":3,"left_children":[1,3,5,7,9,11,13,15,-1,-1,-1,-1,-1,17,19,-1,-1,-1,-1,-1,-1],"loss_changes":[3.0964375E3,4.8934375E2,8.6696875E2,3.3753906E1,8.34375E1,4.703125E1,2.3642188E2,9.472656E-1,0E0,0E0,0E0,0E0,0E0,1.28125E0,6.189453E1,0E0,0E0,0E0,0E0,0E0,0E0],"parents":[2147483647,0,0,1,1,2,2,3,3,4,4,5,5,6,6,7,7,13,13,14,14],"right_children":[2,4,6,8,10,12,14,16,-1,-1,-1,-1,-1,18,20,-1,-1,-1,-1,-1,-1],"split_conditions":[1.3238245E1,1.2007803E1,1.42825775E1,1.125738E1,1.2622011E1,1.3826682E1,1.5323845E1,1.0627303E1,1.1517687E0,1.2297015E0,1.2906817E0,1.3517938E0,1.4020505E0,1.4669971E1,1.7165932E1,9.4665474E-1,1.0799873E0,1.4536073E0,1.4986174E0,1.5964009E0,1.8580669E0],"split_indices":[8,8,8,8,8,8,8,8,0,0,0,0,0,8,8,0,0,0,0,0,0],"split_type":[0,0,0,0,0,0,0,0,0,0,0,0,0,0,0,0,0,0,0,0,0],"sum_hessian":[2.9995E4,1.3541E4,1.6454E4,3.503E3,1.0038E4,1.0275E4,6.179E3,8.24E2,2.679E3,4.24E3,5.798E3,6.375E3,3.9E3,4.559E3,1.62E3,7.5E1,7.49E2,2.124E3,2.435E3,1.491E3,1.29E2],"tree_param":{"num_deleted":"0","num_feature":"25","num_nodes":"21","size_leaf_vector":"0"}},{"base_weights":[3.1213453E0,2.8542717E0,3.3153129E0,2.6203785E0,2.928905E0,3.1890762E0,3.5303385E0,2.4092917E0,2.647767E0,2.853446E0,2.9877079E0,3.128102E0,3.2497125E0,3.4752371E0,3.9731824E0,2.8832808E0,3.00585E0,3.1364365E0,2.8602567E0,3.2723153E0,3.1507037E0,3.4371552E0,3.623061E0,3.885729E0,4.473422E0,3.8894083E0,8.299365E-1],"categories":[],"categories_nodes":[],"categories_segments":[],"categories_sizes":[],"default_left":[1,1,1,1,1,1,1,0,0,0,1,1,1,1,1,0,0,0,0,0,0,0,0,1,0,0,0],"id":4,"left_children":[1,3,5,7,9,11,13,-1,-1,-1,15,17,19,21,23,-1,-1,-1,-1,-1,-1,-1,-1,25,-1,-1,-1],"loss_changes":[1.5444375E3,2.1274219E2,4.6023438E2,1.1333984E1,3.3914062E1,3.034375E1,1.4274219E2,0E0,0E0,0E0,1.4765625E0,3.28125E0,1.9257812E0,1.9710938E1,1.337207E1,0E0,0E0,0E0,0E0,0E0,0E0,0E0,0E0,3.5859375E0,0E0,0E0,0E0],"parents":[2147483647,0,0,1,1,2,2,3,3,4,4,5,5,6,6,10,10,11,11,12,12,13,13,14,14,23,23],"right_children":[2,4,6,8,10,12,14,-1,-1,-1,16,18,20,22,24,-1,-1,-1,-1,-1,-1,-1,-1,26,-1,-1,-1],"split_conditions":[1.3155855E1,1.1917553E1,1.4244907E1,1.0992613E1,1.2562477E1,1.3655552E1,1.5914814E1,7.2278756E-1,7.943302E-1,8.5603386E-1,1.5E0,1.95E1,7.5E0,1.5229774E1,1.7319748E1,8.649843E-1,9.0175503E-1,9.4093096E-1,8.5807705E-1,9.8169464E-1,9.452111E-1,1.0311466E0,1.0869184E0,1.7315813E1,1.3420267E0,1.1668226E0,2.4898095E-1],"split_indices":[8,8,8,8,8,8,8,0,0,0,7,7,7,8,8,0,0,0,0,0,0,0,0,8,0,0,0],"split_type":[0,0,0,0,0,0,0,0,0,0,0,0,0,0,0,0,0,0,0,0,0,0,0,0,0,0,0],"sum_hessian":[2.9995E4,1.2626E4,1.7369E4,3.063E3,9.563E3,1.0954E4,6.415E3,3.62E2,2.701E3,4.21E3,5.353E3,5.488E3,5.466E3,5.713E3,7.02E2,8.16E2,4.537E3,5.312E3,1.76E2,4.424E3,1.042E3,4.562E3,1.151E3,6.05E2,9.7E1,6.04E2,1E0],"tree_param":{"num_deleted":"0","num_feature":"25","num_nodes":"27","size_leaf_vector":"0"}},{"base_weights":[2.1853662E0,2.043562E0,2.3666255E0,1.9063526E0,2.1197863E0,2.2916665E0,2.5385733E0,1.804528E0,1.9654452E0,2.0611782E0,2.1697137E0,2.2419364E0,2.3591056E0,2.4947145E0,2.8514974E0,1.5655593E0,1.8199525E0,1.8633705E0,1.9852588E0,1.9843273E0,2.0749722E0,2.1703687E0,6.7476153E-1,2.2602813E0,2.1616628E0,2.361602E0,1.8801786E0,2.5315902E0,2.40128E0,2.78077E0,3.2355611E0,1.7272898E0,1.8429421E0,2.0925696E0,2.0023549E0,2.0729334E0,2.1835926E0,2.1339242E0,2.2755167E0,1.1948591E0,2.166255E0,7.9344416E-1,1.992304E0,2.5020802E0,2.6342287E0,2.4108937E0,1.6973361E0,2.2008135E0,2.113E0,1.3719221E0,5.014677E-1,1.6510704E0,2.1766613E0,2.6492217E0,1.88384E0,2.3686516E0,2.5602565E0],"categories":[],"categories_nodes":[],"categories_segments":[],"categories_sizes":[],"default_left":[1,1,1,1,1,1,1,1,1,1,1,1,1,1,1,0,1,0,0,0,1,1,0,1,1,0,1,1,1,0,0,0,0,0,0,0,1,0,0,1,1,0,0,0,1,1,0,0,0,0,0,0,0,0,0,0,0],"id":5,"left_children":[1,3,5,7,9,11,13,15,17,19,21,23,25,27,29,-1,31,-1,-1,-1,33,35,-1,37,39,-1,41,43,45,-1,-1,-1,-1,-1,-1,-1,47,-1,-1,49,51,-1,-1,-1,53,55,-1,-1,-1,-1,-1,-1,-1,-1,-1,-1,-1],"loss_changes":[7.6615625E2,1.7205469E2,1.6380469E2,3.269336E1,2.7175781E1,2.5480469E1,4.7591797E1,5.3481445E0,3.9853516E0,1.1777344E0,4.232422E0,2.921875E0,1.9335938E-1,5.9921875E0,4.1228027E0,0E0,1.2543945E0,0E0,0E0,0E0,1.1933594E0,2.96875E0,0E0,3.4101562E0,1.8911133E0,0E0,1.4654846E0,9.628906E-1,2.75E0,0E0,0E0,0E0,0E0,0E0,0E0,0E0,1.5566406E0,0E0,0E0,1.7144299E-1,1.7836914E0,0E0,0E0,0E0,1.0620117E0,2.1289062E-1,0E0,0E0,0E0,0E0,0E0,0E0,0E0,0E0,0E0,0E0,0E0],"parents":[2147483647,0,0,1,1,2,2,3,3,4,4,5,5,6,6,7,7,8,8,9,9,10,10,11,11,12,12,13,13,14,14,16,16,20,20,21,21,23,23,24,24,26,26,27,27,28,28,36,36,39,39,40,40,44,44,45,45],"right_children":[2,4,6,8,10,12,14,16,18,20,22,24,26,28,30,-1,32,-1,-1,-1,34,36,-1,38,40,-1,42,44,46,-1,-1,-1,-1,-1,-1,-1,48,-1,-1,50,52,-1,-1,-1,54,56,-1,-1,-1,-1,-1,-1,-1,-1,-1,-1,-1],"split_conditions":[1.3540367E1,1.2409613E1,1.4685732E1,1.1705099E1,1.2993282E1,1.4064078E1,1.6166302E1,1.074526E1,1.5E0,1.5E0,1.3540281E1,7.5E0,2.05E1,7.5E0,1.7486649E1,4.696678E-1,1.5E0,5.5901116E-1,5.9557766E-1,5.9529823E-1,5E-1,1.5E0,2.0242848E-1,1.5E0,1.297403E1,7.0848066E-1,1.0849573E-1,5E-1,8.340866E-1,8.342311E-1,9.706684E-1,5.18187E-1,5.528827E-1,6.277709E-1,6.0070646E-1,6.2188005E-1,5E-1,6.401773E-1,6.8265504E-1,1.2442419E1,5.9688826E0,2.3803325E-1,5.9769124E-1,7.506241E-1,2.19E2,3.293239E-1,5.092009E-1,6.602441E-1,6.339E-1,4.1157666E-1,1.5044032E-1,4.9532112E-1,6.529984E-1,7.9476655E-1,5.65152E-1,7.105955E-1,7.6807696E-1],"split_indices":[8,8,8,8,8,8,8,8,7,7,8,7,7,7,8,0,7,0,0,0,23,7,0,7,6,0,4,18,4,0,0,0,0,0,0,0,23,0,0,6,9,0,0,0,3,4,0,0,0,0,0,0,0,0,0,0,0],"split_type":[0,0,0,0,0,0,0,0,0,0,0,0,0,0,0,0,0,0,0,0,0,0,0,0,0,0,0,0,0,0,0,0,0,0,0,0,0,0,0,0,0,0,0,0,0,0,0,0,0,0,0,0,0,0,0,0,0],"sum_hessian":[2.9995E4,1.6836E4,1.3159E4,6.022E3,1.0814E4,9.174E3,3.985E3,2.223E3,3.799E3,4.994E3,5.82E3,5.3E3,3.874E3,3.503E3,4.82E2,1.41E2,2.082E3,6.33E2,3.166E3,7.82E2,4.212E3,5.817E3,3E0,4.292E3,1.008E3,3.85E3,2.4E1,2.493E3,1.01E3,4.14E2,6.8E1,4.29E2,1.653E3,3.368E3,8.44E2,7.14E2,5.103E3,4.77E2,3.815E3,6E0,1.002E3,3E0,2.1E1,1.956E3,5.37E2,9.94E2,1.6E1,4.078E3,1.025E3,4E0,2E0,2.3E1,9.79E2,5.24E2,1.3E1,7.88E2,2.06E2],"tree_param":{"num_deleted":"0","num_feature":"25","num_nodes":"57","size_leaf_vector":"0"}},{"base_weights":[1.5303271E0,1.3955454E0,1.6243061E0,1.2838812E0,1.4350058E0,1.5761687E0,1.7706404E0,1.2107848E0,1.3149166E0,1.411158E0,1.4740669E0,1.5472008E0,1.6440741E0,1.7308326E0,1.9522356E0,8.5070616E-1,1.2193651E0,1.2712399E0,1.33866E0,1.3478283E0,1.4226712E0,1.4745954E0,-1.6879463E-1,1.5597852E0,1.4857495E0,1.64447E0,3.7815094E-2,1.7672743E0,1.6804658E0,1.8861324E0,2.1239977E0,1.360026E0,1.2783769E0,1.4121181E0,1.5262436E0,1.4725868E0,1.572087E0,1.3911208E0,1.5161138E0,1.5298607E0,1.6535113E0,1.7170427E0,1.8102822E0,1.3769354E0,1.6860418E0,1.8931895E0,7.100422E-1,2.0480905E0,2.4644732E0,1.4183931E0,1.3345851E0,1.5612425E0,1.656695E0,1.4163709E0,8.3676213E-1,1.0850555E0,1.5195343E0,1.6418343E0,1.7461096E0,1.5082762E0,3.3977127E-1,1.941799E0,1.7236152E0,9.603026E-1,-1.454997E-1,2.058355E0,7.7003765E-1],"categories":[],"categories_nodes":[],"categories_segments":[],"categories_sizes":[],"default_left":[1,1,1,1,1,1,1,1,1,1,1,1,1,1,1,0,0,0,1,0,1,0,0,1,1,1,0,1,1,1,1,0,0,1,0,0,1,1,1,0,1,0,0,1,0,1,1,1,0,0,0,0,0,0,0,0,0,0,0,0,0,0,0,0,0,0,0],"id":6,"left_children":[1,3,5,7,9,11,13,15,17,19,21,23,25,27,29,-1,-1,-1,31,-1,33,-1,-1,35,37,39,-1,41,43,45,47,-1,-1,49,-1,-1,51,53,55,-1,57,-1,-1,59,-1,61,63,65,-1,-1,-1,-1,-1,-1,-1,-1,-1,-1,-1,-1,-1,-1,-1,-1,-1,-1,-1],"loss_changes":[3.776797E2,5.248828E1,1.2165625E2,5.7333984E0,6.3984375E0,2.3625E1,2.8174805E1,1.9750977E0,6.369629E-1,2.2197266E0,3.2265625E0,4.904297E0,2.4589844E0,3.618164E0,4.815918E0,0E0,0E0,0E0,1.18652344E-1,0E0,3.0751953E0,0E0,0E0,5.9804688E0,2.5141602E0,1.5751953E0,0E0,1.3481445E0,2.626953E-1,3.3867188E0,3.2818604E-1,0E0,0E0,2.2460938E-1,0E0,0E0,3.6191406E0,4.4558716E0,1.3085938E-1,0E0,1.0898438E0,0E0,0E0,3.9828644E0,0E0,1.3184814E0,1.2102649E0,7.23938E-1,0E0,0E0,0E0,0E0,0E0,0E0,0E0,0E0,0E0,0E0,0E0,0E0,0E0,0E0,0E0,0E0,0E0,0E0,0E0],"parents":[2147483647,0,0,1,1,2,2,3,3,4,4,5,5,6,6,7,7,8,8,9,9,10,10,11,11,12,12,13,13,14,14,18,18,20,20,23,23,24,24,25,25,27,27,28,28,29,29,30,30,33,33,36,36,37,37,38,38,40,40,43,43,45,45,46,46,47,47],"right_children":[2,4,6,8,10,12,14,16,18,20,22,24,26,28,30,-1,-1,-1,32,-1,34,-1,-1,36,38,40,-1,42,44,46,48,-1,-1,50,-1,-1,52,54,56,-1,58,-1,-1,60,-1,62,64,66,-1,-1,-1,-1,-1,-1,-1,-1,-1,-1,-1,-1,-1,-1,-1,-1,-1,-1,-1],"split_conditions":[1.3128368E1,1.1951189E1,1.4610183E1,1.1315182E1,1.2765598E1,1.4013424E1,1.5851308E1,1.0405828E1,2.5E0,1.5E0,1.31283455E1,7.5E0,1.4609694E1,6.5E0,1.6820915E1,2.5521186E-1,3.6580956E-1,3.8137197E-1,4.2502316E1,4.043485E-1,5E-1,4.4237864E-1,-5.0638393E-2,1.5E0,6.8978395E0,1.5E0,1.1344529E-2,1.4936396E1,1.3140476E3,1.6797E1,1.1880711E1,4.0800783E-1,3.835131E-1,1.15E1,4.5787308E-1,4.4177604E-1,5E-1,3.070135E-1,1.297403E1,4.5895824E-1,5E-1,5.151128E-1,5.430847E-1,1.4855713E1,5.058126E-1,5E-1,5E-1,1.7946926E1,7.39342E-1,4.2551795E-1,4.0037555E-1,4.6837276E-1,4.9700853E-1,4.249113E-1,2.5102866E-1,3.2551664E-1,4.5586032E-1,4.9255028E-1,5.238329E-1,4.5248288E-1,1.01931386E-1,5.8253974E-1,5.170846E-1,2.880908E-1,-4.3649912E-2,6.1750656E-1,2.310113E-1],"split_indices":[8,8,8,8,8,8,8,8,7,7,8,7,8,7,8,0,0,0,6,0,18,0,0,7,9,7,0,8,5,8,9,0,0,7,0,0,18,4,6,0,18,0,0,8,0,14,0,8,0,0,0,0,0,0,0,0,0,0,0,0,0,0,0,0,0,0,0],"split_type":[0,0,0,0,0,0,0,0,0,0,0,0,0,0,0,0,0,0,0,0,0,0,0,0,0,0,0,0,0,0,0,0,0,0,0,0,0,0,0,0,0,0,0,0,0,0,0,0,0,0,0,0,0,0,0,0,0,0,0,0,0,0,0,0,0,0,0],"sum_hessian":[2.9995E4,1.2329E4,1.7666E4,3.228E3,9.101E3,1.3302E4,4.364E3,9.74E2,2.254E3,5.674E3,3.427E3,9.341E3,3.961E3,3.588E3,7.76E2,2.5E1,9.49E2,8.13E2,1.441E3,8.91E2,4.783E3,3.426E3,1E0,7.733E3,1.608E3,3.96E3,1E0,2.062E3,1.526E3,5.69E2,2.07E2,1.048E3,3.93E2,4.354E3,4.29E2,9.71E2,6.762E3,4.02E2,1.206E3,3.02E2,3.658E3,9.7E2,1.092E3,3.2E1,1.494E3,5.65E2,4E0,1.75E2,3.2E1,4.012E3,3.42E2,6.011E3,7.51E2,3.83E2,1.9E1,1.2E1,1.194E3,3.265E3,3.93E2,2.8E1,4E0,4.31E2,1.34E2,3E0,1E0,1.73E2,2E0],"tree_param":{"num_deleted":"0","num_feature":"25","num_nodes":"67","size_leaf_vector":"0"}},{"base_weights":[1.0716716E0,9.987099E-1,1.1605116E0,9.17E-1,1.0306813E0,1.137674E0,1.3101107E0,8.592273E-1,9.4210994E-1,1.0060039E0,1.0593001E0,1.1019816E0,1.1715833E0,1.2947544E0,1.6251438E0,6.496909E-1,8.654645E-1,8.876844E-1,9.5316005E-1,9.9950147E-1,1.0657102E0,1.0634402E0,9.456642E-1,1.1080787E0,9.862057E-1,1.0741944E0,1.1784186E0,1.266267E0,1.3494539E0,8.137973E-1,8.801899E-1,9.699811E-1,9.134478E-1,1.0035526E0,9.264704E-1,1.0816652E0,8.882697E-1,1.02471E0,1.077478E0,9.804972E-1,5.603966E-1,1.0526316E0,1.1136754E0,1.0010695E0,5.100914E-1,1.2034543E0,1.1389569E0,1.2685719E0,2.9567742E-1,1.3137664E0,1.5158141E0,8.8412744E-1,7.213503E-1,9.598336E-1,1.0347048E0,9.7510874E-1,1.016374E0,9.510725E-1,4.918449E-1,9.912678E-1,1.1332552E0,5.97669E-1,9.8956835E-1,1.0779825E0,5.7532483E-1,1.1468794E0,9.28984E-1,7.5424683E-1,3.1050673E-1,1.1070246E0,1.1729447E0,1.0263473E0,7.3149735E-1,6.475141E-1,1.07723236E-1,1.1900915E0,1.2691476E0,1.1298702E0,1.2354231E0,1.2711201E0,6.7634636E-1,1.2542088E0,1.4014652E0,7.521477E-1,1.5327245E0],"categories":[],"categories_nodes":[],"categories_segments":[],"categories_sizes":[],"default_left":[1,1,1,1,1,1,1,1,1,1,1,1,1,1,0,0,1,0,1,1,1,1,1,1,1,0,1,1,1,0,1,1,0,1,1,1,1,0,1,1,1,0,1,1,1,1,1,1,0,1,1,0,0,0,0,0,0,0,0,0,0,0,0,0,0,0,0,0,0,0,0,0,0,0,0,0,0,0,0,0,0,0,0,0,0],"id":7,"left_children":[1,3,5,7,9,11,13,15,17,19,21,23,25,27,-1,-1,29,-1,31,33,35,37,39,41,43,-1,45,47,49,-1,51,53,-1,55,57,59,61,-1,63,65,67,-1,69,71,73,75,77,79,-1,81,83,-1,-1,-1,-1,-1,-1,-1,-1,-1,-1,-1,-1,-1,-1,-1,-1,-1,-1,-1,-1,-1,-1,-1,-1,-1,-1,-1,-1,-1,-1,-1,-1,-1,-1],"loss_changes":[1.9327344E2,4.2097656E1,4.470117E1,5.9257812E0,7.2939453E0,1.29140625E1,6.526367E0,1.2908936E0,1.0942383E0,1.409668E0,1.5639648E0,2.9555664E0,2.7294922E0,9.494629E-1,0E0,0E0,3.2910156E-1,0E0,8.959961E-1,7.758789E-1,7.689209E-1,1.7558594E0,2.1479645E0,5.15625E-1,1.584137E0,0E0,4.1606445E0,2.1707764E0,1.3867188E0,0E0,2.331543E-2,2.2717285E-1,0E0,9.9658203E-1,2.9111023E0,1.4696045E0,1.057064E0,0E0,3.5302734E-1,5.030365E-1,6.861839E-1,0E0,6.430664E-1,1.1980591E0,5.3848743E-1,1.4814453E0,5.2563477E-1,8.532715E-1,0E0,7.284546E-1,6.1080933E-2,0E0,0E0,0E0,0E0,0E0,0E0,0E0,0E0,0E0,0E0,0E0,0E0,0E0,0E0,0E0,0E0,0E0,0E0,0E0,0E0,0E0,0E0,0E0,0E0,0E0,0E0,0E0,0E0,0E0,0E0,0E0,0E0,0E0,0E0],"parents":[2147483647,0,0,1,1,2,2,3,3,4,4,5,5,6,6,7,7,8,8,9,9,10,10,11,11,12,12,13,13,16,16,18,18,19,19,20,20,21,21,22,22,23,23,24,24,26,26,27,27,28,28,30,30,31,31,33,33,34,34,35,35,36,36,38,38,39,39,40,40,42,42,43,43,44,44,45,45,46,46,47,47,49,49,50,50],"right_children":[2,4,6,8,10,12,14,16,18,20,22,24,26,28,-1,-1,30,-1,32,34,36,38,40,42,44,-1,46,48,50,-1,52,54,-1,56,58,60,62,-1,64,66,68,-1,70,72,74,76,78,80,-1,82,84,-1,-1,-1,-1,-1,-1,-1,-1,-1,-1,-1,-1,-1,-1,-1,-1,-1,-1,-1,-1,-1,-1,-1,-1,-1,-1,-1,-1,-1,-1,-1,-1,-1,-1],"split_conditions":[1.3509039E1,1.2203381E1,1.5257774E1,1.1475439E1,1.2993282E1,1.407366E1,1.7418278E1,1.0511172E1,1.5E0,5E-1,1.75E1,1.85E1,1.5E0,1.5959385E1,4.8754314E-1,1.949073E-1,1.5E0,2.6630533E-1,5E-1,1.25E1,7.5E0,2.5E0,4.033968E3,1.5E0,5.2901066E1,3.2225835E-1,6.5E0,1.85E1,9.5E0,2.441392E-1,7.6640396E1,5E-1,2.7403435E-1,2.5E0,4.8800996E3,2.5E0,6.1634297E0,3.0741304E-1,1.3508587E1,1.885E2,4.613406E0,3.157895E-1,5E-1,5E-1,1.1075561E-1,5E-1,4.1233405E-1,9.543792E-1,8.870323E-2,2.353171E1,4.25E1,2.6523826E-1,2.1640511E-1,2.879501E-1,3.1041145E-1,2.9253262E-1,3.049122E-1,2.8532177E-1,1.4755347E-1,2.9738036E-1,3.3997658E-1,1.7930071E-1,2.9687053E-1,3.2339478E-1,1.7259745E-1,3.4406385E-1,2.786952E-1,2.2627406E-1,9.3152024E-2,3.3210737E-1,3.518834E-1,3.0790418E-1,2.194492E-1,1.9425423E-1,3.231697E-2,3.5702747E-1,3.807443E-1,3.3896106E-1,3.7062693E-1,3.8133603E-1,2.0290391E-1,3.7626266E-1,4.2043957E-1,2.256443E-1,4.5981738E-1],"split_indices":[8,8,8,8,8,8,8,8,7,18,7,7,7,8,0,0,7,0,23,7,7,7,5,7,6,0,7,7,7,0,6,18,0,7,5,7,9,0,8,3,10,0,18,14,4,18,4,4,0,6,3,0,0,0,0,0,0,0,0,0,0,0,0,0,0,0,0,0,0,0,0,0,0,0,0,0,0,0,0,0,0,0,0,0,0],"split_type":[0,0,0,0,0,0,0,0,0,0,0,0,0,0,0,0,0,0,0,0,0,0,0,0,0,0,0,0,0,0,0,0,0,0,0,0,0,0,0,0,0,0,0,0,0,0,0,0,0,0,0,0,0,0,0,0,0,0,0,0,0,0,0,0,0,0,0,0,0,0,0,0,0,0,0,0,0,0,0,0,0,0,0,0,0],"sum_hessian":[2.9995E4,1.6476E4,1.3519E4,4.642E3,1.1834E4,1.1736E4,1.783E3,1.417E3,3.225E3,6.374E3,5.46E3,5.734E3,6.002E3,1.705E3,7.8E1,4.4E1,1.373E3,5.58E2,2.667E3,5.764E3,6.1E2,5.26E3,2E2,5.439E3,2.95E2,4.04E2,5.598E3,1.137E3,5.68E2,3.17E2,1.056E3,1.857E3,8.1E2,5.449E3,3.15E2,5.55E2,5.5E1,1.419E3,3.841E3,1.82E2,1.8E1,5.16E2,4.923E3,2.85E2,1E1,3.407E3,2.191E3,1.134E3,3E0,4.75E2,9.3E1,1.026E3,3E1,1.619E3,2.38E2,1.717E3,3.732E3,2.97E2,1.8E1,2.09E2,3.46E2,1.6E1,3.9E1,3.836E3,5E0,3.8E1,1.44E2,9E0,9E0,4.444E3,4.79E2,2.58E2,2.7E1,7E0,3E0,2.847E3,5.6E2,2.014E3,1.77E2,1.128E3,6E0,2.92E2,1.83E2,3E0,9E1],"tree_param":{"num_deleted":"0","num_feature":"25","num_nodes":"85","size_leaf_vector":"0"}},{"base_weights":[7.5057393E-1,7.026223E-1,8.17506E-1,6.5182215E-1,7.2987735E-1,7.8999764E-1,8.808093E-1,6.031454E-1,6.672522E-1,7.1174514E-1,7.442429E-1,7.983217E-1,7.455632E-1,8.701307E-1,1.0592034E0,5.11009E-1,6.109613E-1,6.290648E-1,6.747129E-1,7.031117E-1,7.422781E-1,7.4694437E-1,6.511088E-1,7.439908E-1,8.034175E-1,6.937211E-1,7.788667E-1,8.408067E-1,9.041603E-1,1.0193614E0,1.5065364E0,3.5014185E-1,5.2698267E-1,6.305508E-1,5.9099746E-1,6.688321E-1,7.3404765E-1,7.091496E-1,6.6444224E-1,6.752396E-1,7.5605285E-1,7.2060823E-1,7.5602627E-1,1.337864E-1,6.766575E-1,8.0515957E-1,6.294514E-1,2.3840053E-1,7.0336217E-1,7.454946E-1,8.165546E-1,6.9554406E-1,8.4918576E-1,9.2660487E-1,8.223007E-1,1.0292991E0,-4.542861E-1,5.918283E-1,6.618826E-1,3.912416E-1,5.9276694E-1,6.477629E-1,6.785796E-1,6.843026E-1,7.678752E-1,6.876851E-1,7.1977216E-1,6.870952E-1,5.2870715E-1,7.6081765E-1,6.0303116E-1,7.752135E-1,7.3780704E-1,2.196282E-1,-4.9883366E-2,6.9275403E-1,4.2030495E-1,8.18059E-1,7.877895E-1,8.052987E-1,3.1305957E-1,-4.0531475E-2,2.9280013E-1,7.328142E-1,6.250993E-1,7.8085554E-1,6.4953154E-1,6.5315485E-1,8.672664E-1,3.853263E-1,9.091547E-1,8.347884E-1,9.142447E-1,7.600474E-1,9.379649E-1,8.26306E-1,-3.118062E-1,1.0357614E0,2.7261797E-1],"categories":[],"categories_nodes":[],"categories_segments":[],"categories_sizes":[],"default_left":[1,1,1,1,1,1,1,1,1,1,1,1,1,1,1,1,1,0,1,1,1,1,1,0,1,1,1,1,1,1,0,0,0,1,1,1,1,1,1,0,1,0,1,1,1,1,1,1,1,1,1,1,1,1,1,1,0,0,0,0,0,0,0,0,0,0,0,0,0,0,0,0,0,0,0,0,0,0,0,0,0,0,0,0,0,0,0,0,0,0,0,0,0,0,0,0,0,0,0],"id":8,"left_children":[1,3,5,7,9,11,13,15,17,19,21,23,25,27,29,31,33,-1,35,37,39,41,43,-1,45,47,49,51,53,55,-1,-1,-1,57,59,61,63,65,67,-1,69,-1,71,73,75,77,79,81,83,85,87,89,91,93,95,97,-1,-1,-1,-1,-1,-1,-1,-1,-1,-1,-1,-1,-1,-1,-1,-1,-1,-1,-1,-1,-1,-1,-1,-1,-1,-1,-1,-1,-1,-1,-1,-1,-1,-1,-1,-1,-1,-1,-1,-1,-1,-1,-1],"loss_changes":[9.5697266E1,2.3730469E1,2.109668E1,4.1896973E0,2.432129E0,2.6347656E0,6.282959E0,7.550659E-1,8.955078E-1,8.088379E-1,1.104248E0,1.4350586E0,1.8647461E0,2.8061523E0,2.1892548E0,1.2897873E-1,1.5960693E-1,0E0,8.5668945E-1,4.522705E-1,5.0061035E-1,9.230957E-1,2.367813E0,0E0,1.5234375E0,2.2642517E0,4.4778442E-1,1.7633057E0,2.2531738E0,3.3233185E0,0E0,0E0,0E0,4.2358398E-1,1.1993408E-2,2.8430176E-1,4.3304443E-2,2.816162E-1,1.3278809E0,0E0,1.9744873E-1,0E0,1.0161133E0,1.6862123E-1,4.3920135E-1,8.408203E-1,3.6980953E0,2.0912683E-1,7.9125977E-1,1.0435486E0,2.6154785E0,7.005184E0,9.453125E-1,1.7089844E0,1.902008E0,6.66275E-1,0E0,0E0,0E0,0E0,0E0,0E0,0E0,0E0,0E0,0E0,0E0,0E0,0E0,0E0,0E0,0E0,0E0,0E0,0E0,0E0,0E0,0E0,0E0,0E0,0E0,0E0,0E0,0E0,0E0,0E0,0E0,0E0,0E0,0E0,0E0,0E0,0E0,0E0,0E0,0E0,0E0,0E0,0E0],"parents":[2147483647,0,0,1,1,2,2,3,3,4,4,5,5,6,6,7,7,8,8,9,9,10,10,11,11,12,12,13,13,14,14,15,15,16,16,18,18,19,19,20,20,21,21,22,22,24,24,25,25,26,26,27,27,28,28,29,29,33,33,34,34,35,35,36,36,37,37,38,38,40,40,42,42,43,43,44,44,45,45,46,46,47,47,48,48,49,49,50,50,51,51,52,52,53,53,54,54,55,55],"right_children":[2,4,6,8,10,12,14,16,18,20,22,24,26,28,30,32,34,-1,36,38,40,42,44,-1,46,48,50,52,54,56,-1,-1,-1,58,60,62,64,66,68,-1,70,-1,72,74,76,78,80,82,84,86,88,90,92,94,96,98,-1,-1,-1,-1,-1,-1,-1,-1,-1,-1,-1,-1,-1,-1,-1,-1,-1,-1,-1,-1,-1,-1,-1,-1,-1,-1,-1,-1,-1,-1,-1,-1,-1,-1,-1,-1,-1,-1,-1,-1,-1,-1,-1],"split_conditions":[1.3599105E1,1.2420277E1,1.4730067E1,1.1499187E1,1.3007145E1,5E-1,1.680766E1,1.0710528E1,1.5E0,2.6674706E-1,1.95E1,1.5E0,2.685E2,2.6486596E-1,1.796269E1,1.0301053E1,3.2514153E0,1.8871945E-1,5E-1,7.5E0,1.5E0,2.5E0,2.1288475E1,2.2319724E-1,1.75E1,6.03584E0,9.5E0,7.304563E0,2.87E2,1.7951996E1,4.5196092E-1,1.0504256E-1,1.5809481E-1,2.5E0,1.3911789E1,1.189776E1,2.8671627E0,2.5E0,4.1760205E3,2.025719E-1,4.7289743E0,2.1618249E-1,2.405E2,2.815E2,4.725387E0,5.5E0,4.0281763E0,1.94E2,4.7974876E1,6.5E0,2.0225E3,2.5E0,3.8725648E0,1.5E0,1.6791855E1,9.345652E-1,-1.3628584E-1,1.775485E-1,1.9856478E-1,1.1737249E-1,1.7783009E-1,1.9432887E-1,2.035739E-1,2.052908E-1,2.3036256E-1,2.0630553E-1,2.1593165E-1,2.0612858E-1,1.5861215E-1,2.282453E-1,1.8090935E-1,2.3256405E-1,2.2134212E-1,6.5888464E-2,-1.496501E-2,2.0782621E-1,1.260915E-1,2.4541771E-1,2.3633687E-1,2.4158962E-1,9.391788E-2,-1.2159443E-2,8.784004E-2,2.1984427E-1,1.875298E-1,2.3425667E-1,1.9485947E-1,1.9594647E-1,2.6017994E-1,1.155979E-1,2.727464E-1,2.504365E-1,2.7427343E-1,2.2801422E-1,2.8138947E-1,2.478918E-1,-9.354186E-2,3.1072843E-1,8.1785396E-2],"split_indices":[8,8,8,8,8,23,8,8,7,4,7,7,3,4,8,8,10,0,18,7,7,7,6,0,7,9,7,9,3,8,0,0,0,7,6,8,10,7,5,0,10,0,3,3,10,7,10,3,6,7,1,2,10,7,8,4,0,0,0,0,0,0,0,0,0,0,0,0,0,0,0,0,0,0,0,0,0,0,0,0,0,0,0,0,0,0,0,0,0,0,0,0,0,0,0,0,0,0,0],"split_type":[0,0,0,0,0,0,0,0,0,0,0,0,0,0,0,0,0,0,0,0,0,0,0,0,0,0,0,0,0,0,0,0,0,0,0,0,0,0,0,0,0,0,0,0,0,0,0,0,0,0,0,0,0,0,0,0,0,0,0,0,0,0,0,0,0,0,0,0,0,0,0,0,0,0,0,0,0,0,0,0,0,0,0,0,0,0,0,0,0,0,0,0,0,0,0,0,0,0,0],"sum_hessian":[2.9995E4,1.7482E4,1.2513E4,6.113E3,1.1369E4,8.732E3,3.781E3,1.481E3,4.632E3,5.048E3,6.321E3,7.34E3,1.392E3,3.573E3,2.08E2,1.21E2,1.36E3,7.71E2,3.861E3,3.954E3,1.094E3,6.136E3,1.85E2,6.42E2,6.698E3,5.53E2,8.39E2,1.933E3,1.64E3,1.94E2,1.4E1,1.3E1,1.08E2,6.71E2,6.89E2,3.524E3,3.37E2,3.405E3,5.49E2,1.95E2,8.99E2,1.594E3,4.542E3,9E0,1.76E2,6.628E3,7E1,1.2E1,5.41E2,4.56E2,3.83E2,1.1E2,1.823E3,1.279E3,3.61E2,1.93E2,1E0,3.09E2,3.62E2,8E0,6.81E2,1.136E3,2.388E3,1.45E2,1.92E2,1.149E3,2.256E3,4.67E2,8.2E1,8.68E2,3.1E1,2.192E3,2.35E3,6E0,3E0,1.64E2,1.2E1,3.777E3,2.851E3,4.4E1,2.6E1,2E0,1E1,3.87E2,1.54E2,3.28E2,1.28E2,9.4E1,2.89E2,4.6E1,6.4E1,1.504E3,3.19E2,8.6E1,1.193E3,3.6E2,1E0,1.91E2,2E0],"tree_param":{"num_deleted":"0","num_feature":"25","num_nodes":"99","size_leaf_vector":"0"}},{"base_weights":[5.257052E-1,5.0089353E-1,5.9022236E-1,4.5771453E-1,5.188515E-1,5.7406145E-1,6.501873E-1,4.3201852E-1,4.722635E-1,5.016522E-1,5.3051406E-1,6.8111646E-1,5.710584E-1,6.433152E-1,9.5281833E-1,4.045686E-1,4.443228E-1,4.5100373E-1,4.8220778E-1,5.0806075E-1,4.7254324E-1,5.372469E-1,5.008728E-1,7.095804E-1,4.9986526E-1,5.823659E-1,5.5086964E-1,6.7537594E-1,6.110678E-1,3.6036396E-1,1.0137109E0,4.0558195E-1,-1.6606903E-1,4.565306E-1,4.001252E-1,4.5834625E-1,4.251129E-1,5.037424E-1,4.67555E-1,4.886495E-1,5.1738083E-1,2.9239383E-1,4.830551E-1,5.110661E-1,5.454834E-1,4.338737E-1,5.081354E-1,6.833292E-1,1.1407355E0,5.444294E-1,5.9414715E-1,1.3270324E-1,5.5226284E-1,5.384354E-1,6.869013E-1,6.2663025E-1,4.1830721E-1,6.4352655E-1,-3.861432E-1,2.7191675E-1,4.0897855E-1,4.67652E-1,4.226015E-1,3.5072002E-1,4.4538617E-1,4.3478656E-1,4.8423418E-1,4.2883852E-1,2.0630959E-1,5.304523E-1,4.7151902E-1,4.801525E-1,3.829897E-1,5.0600034E-1,5.433343E-1,-1.5305284E-1,4.4096935E-1,4.8419452E-1,5.8636904E-2,5.4008543E-1,5.8458376E-1,4.7896734E-1,1.6049942E-1,4.9785596E-1,5.611844E-1,4.8597294E-1,7.028125E-1,1.2184167E0,3.3732414E-1,5.8662695E-1,6.3461983E-1,-6.920392E-1,4.672067E-1,5.543022E-1,3.4401625E-1,6.652681E-1,-2.5474276E-2,7.119334E-1,6.0697407E-1,4.2203844E-1,6.382194E-1,1.0423829E-1,6.4917284E-1],"categories":[],"categories_nodes":[],"categories_segments":[],"categories_sizes":[],"default_left":[1,1,1,1,1,1,1,1,1,1,1,1,1,1,1,1,1,1,1,1,1,1,1,1,0,1,1,1,1,1,0,1,0,1,1,1,1,1,1,0,1,1,1,0,1,1,1,1,1,0,1,1,1,1,1,1,1,0,0,0,0,0,0,0,0,0,0,0,0,0,0,0,0,0,0,0,0,0,0,0,0,0,0,0,0,0,0,0,0,0,0,0,0,0,0,0,0,0,0,0,0,0,0],"id":9,"left_children":[1,3,5,7,9,11,13,15,17,19,21,23,25,27,29,31,33,35,37,39,41,43,45,47,-1,49,51,53,55,57,-1,59,-1,61,63,65,67,69,71,-1,73,75,77,-1,79,81,83,85,87,-1,89,91,93,95,97,99,101,-1,-1,-1,-1,-1,-1,-1,-1,-1,-1,-1,-1,-1,-1,-1,-1,-1,-1,-1,-1,-1,-1,-1,-1,-1,-1,-1,-1,-1,-1,-1,-1,-1,-1,-1,-1,-1,-1,-1,-1,-1,-1,-1,-1,-1,-1],"loss_changes":[4.7720703E1,1.6566406E1,7.6953125E0,2.178833E0,2.8027344E0,1.7219238E0,3.0473633E0,6.02478E-1,6.40625E-1,9.165039E-1,1.5466309E0,5.4299164E-1,1.138916E0,1.36969E0,9.695053E-1,4.8832703E-1,6.746521E-1,5.3985596E-2,6.325073E-1,6.640625E-1,2.0043335E0,1.3173828E0,6.062622E-1,8.956146E-1,0E0,1.5004883E0,1.2747192E0,9.7961426E-1,2.3477478E0,1.3054079E0,0E0,2.1884918E-1,0E0,2.6953125E-1,6.309128E-1,4.03656E-1,1.5852737E-1,6.9747925E-1,1.5749207E0,0E0,7.313843E-1,4.3693514E0,4.8854065E-1,0E0,8.6938477E-1,2.0557747E0,5.532837E-1,2.0446014E-1,2.5868416E-2,0E0,5.7214355E-1,2.806238E0,7.886963E-1,5.095024E0,1.1384583E0,1.6345825E0,4.862856E0,0E0,0E0,0E0,0E0,0E0,0E0,0E0,0E0,0E0,0E0,0E0,0E0,0E0,0E0,0E0,0E0,0E0,0E0,0E0,0E0,0E0,0E0,0E0,0E0,0E0,0E0,0E0,0E0,0E0,0E0,0E0,0E0,0E0,0E0,0E0,0E0,0E0,0E0,0E0,0E0,0E0,0E0,0E0,0E0,0E0,0E0],"parents":[2147483647,0,0,1,1,2,2,3,3,4,4,5,5,6,6,7,7,8,8,9,9,10,10,11,11,12,12,13,13,14,14,15,15,16,16,17,17,18,18,19,19,20,20,21,21,22,22,23,23,25,25,26,26,27,27,28,28,29,29,31,31,33,33,34,34,35,35,36,36,37,37,38,38,40,40,41,41,42,42,44,44,45,45,46,46,47,47,48,48,50,50,51,51,52,52,53,53,54,54,55,55,56,56],"right_children":[2,4,6,8,10,12,14,16,18,20,22,24,26,28,30,32,34,36,38,40,42,44,46,48,-1,50,52,54,56,58,-1,60,-1,62,64,66,68,70,72,-1,74,76,78,-1,80,82,84,86,88,-1,90,92,94,96,98,100,102,-1,-1,-1,-1,-1,-1,-1,-1,-1,-1,-1,-1,-1,-1,-1,-1,-1,-1,-1,-1,-1,-1,-1,-1,-1,-1,-1,-1,-1,-1,-1,-1,-1,-1,-1,-1,-1,-1,-1,-1,-1,-1,-1,-1,-1,-1],"split_conditions":[1.4013424E1,1.2454511E1,1.5264799E1,1.1728098E1,1.3150665E1,6.430134E0,1.768797E1,1.1209059E1,2.5E0,5E-1,5E-1,4.6581783E1,6.5E0,2.105E2,2.5E0,1.1208612E1,4.3187013E0,1.2315785E1,5.9881854E0,2.5E0,2.902324E1,2.5E0,3.053107E1,4.5809563E1,1.4995958E-1,2.5E0,6.492359E0,7.180922E0,4.5332804E-1,2.5E0,3.0411327E-1,1.0346398E1,-4.982071E-2,1.1612896E1,1.9271423E3,1.2065765E1,5E-1,3.9910035E0,7.5E0,1.4659485E-1,2.433866E-1,3.0257351E0,1.3150488E1,1.5331984E-1,5E-1,4.6146355E0,4.510518E0,1.5E0,1.6854957E-1,1.6332883E-1,5E-1,2.5E0,2.05E1,5.391945E0,1.5940618E4,2.5147834E0,1.0229678E1,1.9305797E-1,-1.1584297E-1,8.157503E-2,1.2269357E-1,1.4029561E-1,1.2678045E-1,1.0521601E-1,1.3361585E-1,1.3043597E-1,1.4527026E-1,1.2865156E-1,6.189288E-2,1.591357E-1,1.4145571E-1,1.4404576E-1,1.14896916E-1,1.5180011E-1,1.630003E-1,-4.5915853E-2,1.3229081E-1,1.4525837E-1,1.7591072E-2,1.6202563E-1,1.7537513E-1,1.4369021E-1,4.8149828E-2,1.493568E-1,1.6835533E-1,1.4579189E-1,2.1084376E-1,3.65525E-1,1.0119725E-1,1.759881E-1,1.9038595E-1,-2.0761177E-1,1.40162E-1,1.6629067E-1,1.0320488E-1,1.9958045E-1,-7.642283E-3,2.1358003E-1,1.8209222E-1,1.2661153E-1,1.9146584E-1,3.1271487E-2,1.9475186E-1],"split_indices":[8,8,8,8,8,9,8,8,7,23,23,6,7,3,7,8,10,8,9,7,6,7,6,6,0,7,9,9,4,2,0,8,0,8,5,8,24,10,7,0,4,10,8,0,18,10,10,7,4,0,18,2,7,9,5,10,9,0,0,0,0,0,0,0,0,0,0,0,0,0,0,0,0,0,0,0,0,0,0,0,0,0,0,0,0,0,0,0,0,0,0,0,0,0,0,0,0,0,0,0,0,0,0],"split_type":[0,0,0,0,0,0,0,0,0,0,0,0,0,0,0,0,0,0,0,0,0,0,0,0,0,0,0,0,0,0,0,0,0,0,0,0,0,0,0,0,0,0,0,0,0,0,0,0,0,0,0,0,0,0,0,0,0,0,0,0,0,0,0,0,0,0,0,0,0,0,0,0,0,0,0,0,0,0,0,0,0,0,0,0,0,0,0,0,0,0,0,0,0,0,0,0,0,0,0,0,0,0,0],"sum_hessian":[2.9995E4,2.167E4,8.325E3,6.373E3,1.5297E4,6.566E3,1.759E3,2.315E3,4.058E3,6.199E3,9.098E3,1.73E2,6.393E3,1.723E3,3.6E1,7.27E2,1.588E3,1.308E3,2.75E3,5.067E3,1.132E3,7.4E3,1.698E3,1.47E2,2.6E1,4.08E3,2.313E3,8.54E2,8.69E2,4E0,3.2E1,7.26E2,1E0,1.237E3,3.51E2,1.006E3,3.02E2,1.1E3,1.65E3,1.661E3,3.406E3,6.4E1,1.068E3,1.786E3,5.614E3,1.72E2,1.526E3,1.41E2,6E0,9.78E2,3.102E3,8E0,2.305E3,7E1,7.84E2,8.02E2,6.7E1,3E0,1E0,2E1,7.06E2,9.22E2,3.15E2,1.72E2,1.79E2,5.36E2,4.7E2,2.96E2,6E0,5.93E2,5.07E2,1.432E3,2.18E2,2.382E3,1.024E3,1.6E1,4.8E1,1.065E3,3E0,4.946E3,6.68E2,1.47E2,2.5E1,1.287E3,2.39E2,1.5E1,1.26E2,5E0,1E0,2.629E3,4.73E2,2E0,6E0,2.281E3,2.4E1,5.7E1,1.3E1,5.91E2,1.93E2,4.5E1,7.57E2,2.9E1,3.8E1],"tree_param":{"num_deleted":"0","num_feature":"25","num_nodes":"103","size_leaf_vector":"0"}},{"base_weights":[3.6821422E-1,3.4177086E-1,3.9909938E-1,3.07836E-1,3.5154748E-1,3.8421363E-1,4.312894E-1,2.7899876E-1,3.151762E-1,3.482464E-1,3.8187498E-1,3.8824373E-1,3.5476226E-1,4.2221728E-1,4.9712676E-1,2.0750193E-1,2.8462875E-1,3.26535E-1,2.8948203E-1,3.3703247E-1,3.56514E-1,3.9003503E-1,2.0179062E-1,3.8837326E-1,-3.4428692E-1,3.0451983E-1,3.9115316E-1,4.3487495E-1,3.887487E-1,4.5374897E-1,5.701512E-1,5.7510376E-2,2.0912442E-1,2.7802286E-1,3.0623633E-1,3.2048336E-1,3.6832932E-1,3.0793798E-1,2.6866248E-1,3.3862063E-1,2.552884E-1,3.6067918E-1,3.169176E-1,3.5244697E-1,4.3214077E-1,4.5681047E-1,-6.0436044E-2,3.9417538E-1,3.7230536E-1,3.990289E-1,2.7016616E-1,4.0882203E-1,3.1169438E-1,4.0303016E-1,4.5129165E-1,3.935846E-1,6.776136E-2,5.061803E-1,3.7407878E-1,5.133465E-1,7.2429264E-1,3.2080275E-1,2.7988434E-2,3.7094438E-1,3.373273E-2,2.739637E-1,3.3426625E-1,2.6496595E-1,5.933268E-1,3.463648E-1,3.2341725E-1,4.224611E-1,2.3944952E-1,3.5468665E-1,4.003635E-1,3.3827978E-1,2.5605E-1,3.2776147E-1,3.6388317E-1,4.673868E-1,3.8016677E-1,3.3233345E-1,5.950854E-1,3.4834743E-1,-2.1328518E-1,3.698395E-1,4.032597E-1,3.6923143E-1,6.386978E-1,4.2619693E-1,-6.1766267E-2,2.7922603E-1,-4.348642E-2,3.4612438E-1,4.294841E-1,3.2490584E-1,-1.6917944E-1,3.8976324E-1,4.9383247E-1,3.8461822E-1,4.6531042E-1,3.5065344E-1,4.3650195E-1,2.1440324E-1,-1.7235605E-1,5.124123E-1,-3.6076784E-1,-1.2929277E-1,4.1076884E-1,5.2199674E-1,1.701994E-1,3.671959E-1,7.478747E-1],"categories":[],"categories_nodes":[],"categories_segments":[],"categories_sizes":[],"default_left":[1,1,1,1,1,1,1,1,1,1,1,1,1,1,1,1,1,1,1,1,1,1,1,1,0,1,1,1,1,1,1,0,0,0,0,1,1,1,1,1,1,1,1,1,1,1,1,1,1,1,1,1,1,1,1,1,1,1,1,1,1,0,0,0,0,0,0,0,0,0,0,0,0,0,0,0,0,0,0,0,0,0,0,0,0,0,0,0,0,0,0,0,0,0,0,0,0,0,0,0,0,0,0,0,0,0,0,0,0,0,0,0,0],"id":10,"left_children":[1,3,5,7,9,11,13,15,17,19,21,23,25,27,29,31,33,35,37,39,41,43,45,47,-1,49,51,53,55,57,59,-1,-1,-1,-1,61,63,65,67,69,71,73,75,77,79,81,83,85,87,89,91,93,95,97,99,101,103,105,107,109,111,-1,-1,-1,-1,-1,-1,-1,-1,-1,-1,-1,-1,-1,-1,-1,-1,-1,-1,-1,-1,-1,-1,-1,-1,-1,-1,-1,-1,-1,-1,-1,-1,-1,-1,-1,-1,-1,-1,-1,-1,-1,-1,-1,-1,-1,-1,-1,-1,-1,-1,-1,-1],"loss_changes":[2.4361572E1,5.255493E0,6.4611816E0,6.791382E-1,1.1228027E0,9.8583984E-1,2.3972778E0,2.404213E-1,7.463379E-1,9.296875E-1,1.7155609E0,9.226074E-1,1.985321E0,1.4589844E0,1.3979645E0,2.0878315E-3,1.292038E-2,3.8528442E-1,2.6000977E-1,5.3985596E-1,9.5788574E-1,1.6946716E0,3.7056234E0,6.2841797E-1,0E0,1.4766006E0,8.047943E-1,1.2714844E0,1.6249542E0,1.2016602E0,1.3005791E0,0E0,0E0,0E0,0E0,1.5414429E-1,2.0185852E-1,3.2525253E-1,3.5524368E-1,4.4476318E-1,1.5303326E-1,1.255188E0,7.2864914E-1,5.632782E-2,8.225174E-1,2.8417063E-1,1.8237988E0,1.1976318E0,1.5853577E0,1.6287441E0,1.0379791E0,5.509033E-1,8.4909916E-1,9.5796204E-1,1.527771E0,1.7778625E0,6.355453E-1,1.2546349E0,2.5648575E0,3.356247E-1,1.3801384E-1,0E0,0E0,0E0,0E0,0E0,0E0,0E0,0E0,0E0,0E0,0E0,0E0,0E0,0E0,0E0,0E0,0E0,0E0,0E0,0E0,0E0,0E0,0E0,0E0,0E0,0E0,0E0,0E0,0E0,0E0,0E0,0E0,0E0,0E0,0E0,0E0,0E0,0E0,0E0,0E0,0E0,0E0,0E0,0E0,0E0,0E0,0E0,0E0,0E0,0E0,0E0,0E0],"parents":[2147483647,0,0,1,1,2,2,3,3,4,4,5,5,6,6,7,7,8,8,9,9,10,10,11,11,12,12,13,13,14,14,15,15,16,16,17,17,18,18,19,19,20,20,21,21,22,22,23,23,25,25,26,26,27,27,28,28,29,29,30,30,35,35,36,36,37,37,38,38,39,39,40,40,41,41,42,42,43,43,44,44,45,45,46,46,47,47,48,48,49,49,50,50,51,51,52,52,53,53,54,54,55,55,56,56,57,57,58,58,59,59,60,60],"right_children":[2,4,6,8,10,12,14,16,18,20,22,24,26,28,30,32,34,36,38,40,42,44,46,48,-1,50,52,54,56,58,60,-1,-1,-1,-1,62,64,66,68,70,72,74,76,78,80,82,84,86,88,90,92,94,96,98,100,102,104,106,108,110,112,-1,-1,-1,-1,-1,-1,-1,-1,-1,-1,-1,-1,-1,-1,-1,-1,-1,-1,-1,-1,-1,-1,-1,-1,-1,-1,-1,-1,-1,-1,-1,-1,-1,-1,-1,-1,-1,-1,-1,-1,-1,-1,-1,-1,-1,-1,-1,-1,-1,-1,-1,-1],"split_conditions":[1.3483173E1,1.2030603E1,1.4610183E1,1.5E0,5E-1,4.245868E0,1.6115685E1,1.0791027E1,5E-1,1.2770998E1,9.5E0,1.4609694E1,4.406929E0,7.5E0,2.36232E1,1.02166E1,1.1866711E1,5E-1,4.3259363E0,1.95E1,1.3419549E1,3.5E0,1.465E2,6.5E0,-1.0328608E-1,6.9944544E0,5.289906E1,3.7458706E3,8.340866E-1,5.37287E-1,9.083105E3,1.7253114E-2,6.273733E-2,8.340686E-2,9.1870904E-2,1.2029833E1,2.8298031E4,1.1521111E1,5.906227E1,6.984832E0,4.1557747E1,1.3337333E1,3.8561492E0,1.5E0,7.23155E0,1.19E2,1.2685642E1,2.5E0,5.743795E1,4.3949122E0,7.206467E1,1.363069E1,1.9E1,5E-1,2.5E0,1.05E1,2.1678528E1,4.7425184E0,1.0154982E1,5E-1,2.5E0,9.6240826E-2,8.3965305E-3,1.1128332E-1,1.011982E-2,8.218911E-2,1.00279875E-1,7.948979E-2,1.7799805E-1,1.0390944E-1,9.702518E-2,1.2673834E-1,7.1834855E-2,1.06405996E-1,1.2010906E-1,1.0148394E-1,7.6815E-2,9.832845E-2,1.0916495E-1,1.4021605E-1,1.1405004E-1,9.970004E-2,1.7852563E-1,1.04504235E-1,-6.398556E-2,1.1095185E-1,1.20977916E-1,1.10769436E-1,1.9160935E-1,1.2785909E-1,-1.852988E-2,8.376782E-2,-1.3045927E-2,1.0383732E-1,1.2884523E-1,9.747176E-2,-5.0753836E-2,1.1692897E-1,1.4814974E-1,1.1538547E-1,1.3959314E-1,1.0519604E-1,1.3095059E-1,6.4320974E-2,-5.1706817E-2,1.537237E-1,-1.0823036E-1,-3.8787834E-2,1.2323066E-1,1.5659903E-1,5.105982E-2,1.1015878E-1,2.2436242E-1],"split_indices":[8,8,8,7,18,10,8,8,23,8,7,8,10,7,6,8,8,18,10,7,8,7,3,7,0,9,6,5,4,4,5,0,0,0,0,8,5,8,6,9,6,8,10,7,9,3,8,7,6,10,6,8,7,20,7,7,6,10,9,16,7,0,0,0,0,0,0,0,0,0,0,0,0,0,0,0,0,0,0,0,0,0,0,0,0,0,0,0,0,0,0,0,0,0,0,0,0,0,0,0,0,0,0,0,0,0,0,0,0,0,0,0,0],"split_type":[0,0,0,0,0,0,0,0,0,0,0,0,0,0,0,0,0,0,0,0,0,0,0,0,0,0,0,0,0,0,0,0,0,0,0,0,0,0,0,0,0,0,0,0,0,0,0,0,0,0,0,0,0,0,0,0,0,0,0,0,0,0,0,0,0,0,0,0,0,0,0,0,0,0,0,0,0,0,0,0,0,0,0,0,0,0,0,0,0,0,0,0,0,0,0,0,0,0,0,0,0,0,0,0,0,0,0,0,0,0,0,0,0],"sum_hessian":[2.9995E4,1.6166E4,1.3829E4,3.623E3,1.2543E4,9.465E3,4.364E3,7.43E2,2.88E3,1.1323E4,1.22E3,8.315E3,1.15E3,3.842E3,5.22E2,5.7E1,6.86E2,1.989E3,8.91E2,4.823E3,6.5E3,1.166E3,5.4E1,8.314E3,1E0,4.87E2,6.63E2,2.779E3,1.063E3,3.32E2,1.9E2,1E0,5.6E1,5.36E2,1.5E2,1.745E3,2.44E2,4.65E2,4.26E2,4.728E3,9.5E1,5.874E3,6.26E2,6.21E2,5.45E2,2.7E1,2.7E1,6.091E3,2.223E3,1.27E2,3.6E2,5.39E2,1.24E2,9.54E2,1.825E3,1.047E3,1.6E1,1.97E2,1.35E2,1.42E2,4.8E1,1.743E3,2E0,2.42E2,2E0,2.08E2,2.57E2,4.23E2,3E0,3.118E3,1.61E3,6E0,8.9E1,5.112E3,7.62E2,4.6E2,1.66E2,2.06E2,4.15E2,3.2E2,2.25E2,1.6E1,1.1E1,7E0,2E1,1.667E3,4.424E3,2.2E3,2.3E1,1.2E2,7E0,3.5E2,1E1,1.38E2,4.01E2,1.21E2,3E0,8.37E2,1.17E2,3.22E2,1.503E3,5.28E2,5.19E2,1E1,6E0,1.96E2,1E0,9E0,1.26E2,1.38E2,4E0,4E0,4.4E1],"tree_param":{"num_deleted":"0","num_feature":"25","num_nodes":"113","size_leaf_vector":"0"}},{"base_weights":[2.5791118E-1,2.458092E-1,2.9240116E-1,2.2231671E-1,2.5446272E-1,2.8391793E-1,3.2930547E-1,2.2588225E-1,1.918021E-1,2.5182942E-1,2.7845874E-1,2.822611E-1,4.370913E-1,3.2651082E-1,7.401683E-1,2.2013E-1,2.894796E-1,1.932094E-1,-7.779789E-2,2.525966E-1,1.943376E-1,2.8741568E-1,1.8025589E-1,2.4423678E-1,2.8576383E-1,3.2710633E-1,6.043824E-1,3.1845576E-1,4.6135297E-1,2.2033182E-1,-3.858266E-1,2.9391226E-1,1.6163467E-1,1.8875898E-1,2.8561088E-1,2.3367773E-1,2.5514755E-1,1.5602998E-1,2.6313972E-1,2.5446418E-1,3.200186E-1,-6.687682E-2,2.6989242E-1,3.0280286E-1,2.0790999E-1,2.789094E-1,3.0982938E-1,4.5739248E-1,2.1033366E-1,3.655595E-1,7.158728E-1,3.5255694E-1,2.8926983E-1,5.4916704E-1,-2.6716085E-2,2.0585924E-1,2.2845E-1,3.1114072E-1,2.7010182E-1,-4.9216E-2,2.811183E-1,1.6735324E-1,2.0350541E-1,4.5015335E-1,1.9263755E-1,2.2676584E-1,2.531994E-1,2.6192668E-1,2.4495536E-1,2.6189572E-1,5.7210796E-2,-2.2694016E-2,2.8107864E-1,2.6076448E-1,2.0213465E-1,3.7156397E-1,2.70769E-1,1.9529967E-1,-3.5446867E-1,1.6886237E-1,3.758237E-1,-2.0175314E-1,3.1656313E-1,3.1855822E-1,1.6194028E-1,2.8583226E-1,2.4984537E-1,3.1478003E-1,5.2081335E-2,2.2872138E-1,5.717239E-1,2.4514489E-1,2.9022027E-2,3.5483038E-1,-5.319042E-1,3.423575E-1,2.473282E-1,4.6714818E-1,7.629198E-1,7.841996E-2,-1.2803555E-1],"categories":[],"categories_nodes":[],"categories_segments":[],"categories_sizes":[],"default_left":[1,1,1,1,1,1,1,1,1,1,1,1,1,1,0,1,1,1,0,1,1,1,1,1,1,1,1,1,1,1,0,1,1,1,1,1,1,1,1,1,1,1,1,1,1,1,1,1,1,0,0,1,1,1,1,0,0,0,0,0,0,0,0,0,0,0,0,0,0,0,0,0,0,0,0,0,0,0,0,0,0,0,0,0,0,0,0,0,0,0,0,0,0,0,0,0,0,0,0,0,0],"id":11,"left_children":[1,3,5,7,9,11,13,15,17,19,21,23,25,27,-1,29,31,33,-1,35,37,39,41,43,45,47,49,51,53,55,-1,57,59,61,63,65,67,69,71,73,75,77,79,81,83,85,87,89,91,-1,-1,93,95,97,99,-1,-1,-1,-1,-1,-1,-1,-1,-1,-1,-1,-1,-1,-1,-1,-1,-1,-1,-1,-1,-1,-1,-1,-1,-1,-1,-1,-1,-1,-1,-1,-1,-1,-1,-1,-1,-1,-1,-1,-1,-1,-1,-1,-1,-1,-1],"loss_changes":[1.2448242E1,4.4588623E0,2.3440552E0,6.0806274E-1,9.550781E-1,1.4851074E0,1.4220886E0,1.8953247E0,2.5519753E-1,5.9625244E-1,1.3511353E0,7.6571655E-1,1.0166702E0,1.4182434E0,0E0,6.8611145E-1,2.0240402E-1,2.0515823E-1,0E0,6.3708496E-1,4.7816372E-1,1.4870682E0,3.0307384E0,1.0773945E0,8.600769E-1,5.4277754E-1,4.039669E-1,1.2545776E0,3.4005585E0,5.303192E-1,0E0,9.030151E-2,4.4212E-1,1.5660095E-1,3.2633138E-1,1.7562103E-1,8.1396484E-1,1.3345582E0,3.6017942E-1,1.8829727E-1,1.7525558E0,2.859021E0,1.006762E0,1.4732609E0,1.6472921E0,8.291626E-1,1.5952225E0,3.6597586E-1,1.4436567E-1,0E0,0E0,1.4434662E0,1.5629997E0,8.182335E-1,1.4852078E-1,0E0,0E0,0E0,0E0,0E0,0E0,0E0,0E0,0E0,0E0,0E0,0E0,0E0,0E0,0E0,0E0,0E0,0E0,0E0,0E0,0E0,0E0,0E0,0E0,0E0,0E0,0E0,0E0,0E0,0E0,0E0,0E0,0E0,0E0,0E0,0E0,0E0,0E0,0E0,0E0,0E0,0E0,0E0,0E0,0E0,0E0],"parents":[2147483647,0,0,1,1,2,2,3,3,4,4,5,5,6,6,7,7,8,8,9,9,10,10,11,11,12,12,13,13,15,15,16,16,17,17,19,19,20,20,21,21,22,22,23,23,24,24,25,25,26,26,27,27,28,28,29,29,31,31,32,32,33,33,34,34,35,35,36,36,37,37,38,38,39,39,40,40,41,41,42,42,43,43,44,44,45,45,46,46,47,47,48,48,51,51,52,52,53,53,54,54],"right_children":[2,4,6,8,10,12,14,16,18,20,22,24,26,28,-1,30,32,34,-1,36,38,40,42,44,46,48,50,52,54,56,-1,58,60,62,64,66,68,70,72,74,76,78,80,82,84,86,88,90,92,-1,-1,94,96,98,100,-1,-1,-1,-1,-1,-1,-1,-1,-1,-1,-1,-1,-1,-1,-1,-1,-1,-1,-1,-1,-1,-1,-1,-1,-1,-1,-1,-1,-1,-1,-1,-1,-1,-1,-1,-1,-1,-1,-1,-1,-1,-1,-1,-1,-1,-1],"split_conditions":[1.407366E1,1.2405065E1,1.5412376E1,1.2316333E1,5E-1,5.655998E0,1.8071985E1,1.2249805E1,1.2405019E1,5E-1,7.5E0,1.7926592E3,5.539613E0,1.25E1,2.2205049E-1,1.2249647E1,6.3542618E1,1.15E1,-2.3339368E-2,1.5E0,4.8752137E-2,3.5E0,5E-1,1.102374E-1,3.6584964E0,2.95E2,2.5E0,5.5E0,1.939616E4,2.5E0,-1.1574798E-1,6.7138667E0,6.241946E-2,1.2354781E1,5.7915373E0,1.3515953E1,5.5E0,4.5E0,1.2468289E1,3.5208254E0,7.401718E0,1.54E2,7.601827E0,6.4953527E0,1.4342003E1,7.5E0,5E-1,9.674728E-2,7.290704E0,1.0966785E-1,2.1476185E-1,5E-1,2.095E2,2.0225E3,2.1350847E1,6.1757777E-2,6.8535E-2,9.3342215E-2,8.103055E-2,-1.47648E-2,8.433549E-2,5.0205976E-2,6.1051626E-2,1.35046E-1,5.7791267E-2,6.8029754E-2,7.5959824E-2,7.857801E-2,7.348661E-2,7.856872E-2,1.716324E-2,-6.808205E-3,8.432359E-2,7.8229345E-2,6.06404E-2,1.11469194E-1,8.12307E-2,5.85899E-2,-1.0634061E-1,5.0658714E-2,1.1274712E-1,-6.0525943E-2,9.4968945E-2,9.556747E-2,4.8582084E-2,8.574968E-2,7.4953616E-2,9.4434015E-2,1.5624401E-2,6.861642E-2,1.7151716E-1,7.354347E-2,8.706609E-3,1.0644912E-1,-1.5957128E-1,1.0270725E-1,7.419846E-2,1.4014447E-1,2.2887595E-1,2.3525989E-2,-3.8410664E-2],"split_indices":[8,8,8,8,18,10,8,8,8,24,7,5,9,7,0,8,6,7,0,7,4,7,0,4,10,3,2,7,5,7,0,9,4,8,9,8,7,7,8,10,9,3,9,9,8,7,13,4,10,0,0,13,3,1,6,0,0,0,0,0,0,0,0,0,0,0,0,0,0,0,0,0,0,0,0,0,0,0,0,0,0,0,0,0,0,0,0,0,0,0,0,0,0,0,0,0,0,0,0,0,0],"split_type":[0,0,0,0,0,0,0,0,0,0,0,0,0,0,0,0,0,0,0,0,0,0,0,0,0,0,0,0,0,0,0,0,0,0,0,0,0,0,0,0,0,0,0,0,0,0,0,0,0,0,0,0,0,0,0,0,0,0,0,0,0,0,0,0,0,0,0,0,0,0,0,0,0,0,0,0,0,0,0,0,0,0,0,0,0,0,0,0,0,0,0,0,0,0,0,0,0,0,0,0,0],"sum_hessian":[2.9995E4,2.221E4,7.785E3,5.986E3,1.6224E4,6.337E3,1.448E3,5.354E3,6.32E2,1.463E4,1.594E3,6.272E3,6.5E1,1.44E3,8E0,4.914E3,4.4E2,6.29E2,3E0,1.4434E4,1.96E2,1.459E3,1.35E2,5.35E2,5.737E3,4.1E1,2.4E1,1.362E3,7.8E1,4.913E3,1E0,4.24E2,1.6E1,6.03E2,2.6E1,1.726E3,1.2708E4,1.28E2,6.8E1,7.3E2,7.29E2,3.6E1,9.9E1,2.02E2,3.33E2,4.475E3,1.262E3,1.8E1,2.3E1,9E0,1.5E1,6.23E2,7.39E2,6.6E1,1.2E1,1.775E3,3.138E3,2.39E2,1.85E2,6E0,1E1,2.51E2,3.52E2,8E0,1.8E1,1.284E3,4.42E2,7.617E3,5.091E3,6.1E1,6.7E1,4E0,6.4E1,6.48E2,8.2E1,3.53E2,3.76E2,1.9E1,1.7E1,5.2E1,4.7E1,5E0,1.97E2,9.6E1,2.37E2,3.607E3,8.68E2,1.238E3,2.4E1,7E0,1.1E1,1.9E1,4E0,6.22E2,1E0,3.23E2,4.16E2,5E1,1.6E1,6E0,6E0],"tree_param":{"num_deleted":"0","num_feature":"25","num_nodes":"101","size_leaf_vector":"0"}},{"base_weights":[1.806463E-1,1.6829835E-1,1.9878425E-1,1.4980586E-1,1.7299606E-1,1.937381E-1,2.2844642E-1,1.6185421E-1,1.4047614E-1,1.1305738E-1,1.7415161E-1,1.9741647E-1,1.734781E-1,2.2460608E-1,4.0121153E-1,1.4034377E-1,1.7604598E-1,1.273486E-1,1.530531E-1,1.2077751E-1,-2.4933131E-1,2.2350177E-1,1.7247227E-1,1.924731E-1,2.1632527E-1,1.4955461E-1,2.0872444E-1,2.0884475E-1,2.6708165E-1,5.840969E-2,4.4099328E-1,1.12161845E-1,1.5065996E-1,1.8177675E-1,1.0294088E-1,1.3408683E-1,7.327139E-2,1.4928079E-1,2.1447852E-1,1.0407249E-1,2.3607759E-1,-3.263792E-1,6.795406E-2,2.0248967E-1,3.6419696E-1,1.6298035E-1,1.7746343E-1,1.9788392E-1,1.616693E-1,2.1987398E-1,7.8381866E-2,1.5891047E-1,-3.132252E-2,1.5799765E-1,2.6929972E-1,3.7072286E-2,2.1649264E-1,2.1472625E-1,3.0177632E-1,3.02166E-1,-4.5830774E-1,3.867285E-1,5.8730125E-1,4.9751155E-2,1.1734422E-1,1.613598E-1,1.412305E-1,1.18159465E-1,1.8452382E-1,1.5181698E-1,-3.8815647E-2,1.4108445E-1,1.1971463E-1,9.894823E-2,-5.062736E-1,1.2448498E-1,1.5804766E-1,2.548046E-1,1.6536607E-1,1.4890978E-1,5.7579245E-2,1.7391558E-1,4.4212002E-1,1.628891E-1,2.3177783E-1,4.3880463E-2,3.6904672E-1,1.6570286E-1,1.3498934E-1,1.3739717E-1,1.806058E-1,3.2048023E-1,1.968281E-1,2.3423743E-2,1.7512152E-1,2.1202223E-1,2.8098267E-1,-7.5797364E-2,3.309927E-1,1.9169901E-1,1.1664951E-1,-1.7932425E-1,1.8484612E-1,2.367322E-1,1.10116154E-1,1.6882306E-1,2.9834005E-1,-9.160229E-1,1.2978607E-1,2.7719E-1,1.9060223E-1,4.2764258E-2,2.5944945E-1,2.6872668E-1,3.741192E-1],"categories":[],"categories_nodes":[],"categories_segments":[],"categories_sizes":[],"default_left":[1,1,1,1,1,1,1,1,1,1,1,1,1,1,1,1,1,1,1,1,1,1,1,1,1,1,1,1,1,1,1,1,1,1,1,1,1,1,1,1,1,0,0,1,1,1,1,1,1,1,1,1,1,1,1,1,1,1,1,0,0,0,0,0,0,0,0,0,0,0,0,0,0,0,0,0,0,0,0,0,0,0,0,0,0,0,0,0,0,0,0,0,0,0,0,0,0,0,0,0,0,0,0,0,0,0,0,0,0,0,0,0,0,0,0],"id":12,"left_children":[1,3,5,7,9,11,13,15,17,19,21,23,25,27,29,31,33,35,37,39,41,43,45,47,49,51,53,55,57,59,61,63,65,67,69,71,73,75,77,79,81,-1,-1,83,85,87,89,91,93,95,97,99,101,103,105,107,109,111,113,-1,-1,-1,-1,-1,-1,-1,-1,-1,-1,-1,-1,-1,-1,-1,-1,-1,-1,-1,-1,-1,-1,-1,-1,-1,-1,-1,-1,-1,-1,-1,-1,-1,-1,-1,-1,-1,-1,-1,-1,-1,-1,-1,-1,-1,-1,-1,-1,-1,-1,-1,-1,-1,-1,-1,-1],"loss_changes":[6.6845703E0,1.5250244E0,1.773468E0,3.846283E-1,9.6591187E-1,7.3968506E-1,1.0776138E0,4.5609665E-1,3.1897354E-1,7.91085E-1,1.1183167E0,7.7923584E-1,1.3213005E0,1.0983887E0,4.7881985E-1,1.6655159E-1,3.7719345E-1,3.5783958E-1,2.0942879E-1,4.8969698E-1,1.6885576E-1,1.2743282E0,6.1083984E-1,1.1298828E0,8.697815E-1,1.6278553E0,1.9424706E0,1.6498604E0,7.762184E-1,7.6825064E-1,3.487301E-2,5.01163E-2,2.3522377E-2,1.3111305E-1,4.9781686E-1,7.322121E-2,1.7465167E0,1.9444656E-1,7.273364E-2,4.8131418E-1,3.4577298E-1,0E0,0E0,4.250164E-1,7.39069E-2,3.3320618E-1,1.0880432E0,7.038574E-1,1.9430141E0,7.8777313E-1,1.8556135E0,1.241375E0,1.5688273E0,1.3084869E0,8.0457115E-1,4.9789653E0,1.8455124E0,1.4347544E0,5.593548E-1,0E0,0E0,0E0,0E0,0E0,0E0,0E0,0E0,0E0,0E0,0E0,0E0,0E0,0E0,0E0,0E0,0E0,0E0,0E0,0E0,0E0,0E0,0E0,0E0,0E0,0E0,0E0,0E0,0E0,0E0,0E0,0E0,0E0,0E0,0E0,0E0,0E0,0E0,0E0,0E0,0E0,0E0,0E0,0E0,0E0,0E0,0E0,0E0,0E0,0E0,0E0,0E0,0E0,0E0,0E0,0E0],"parents":[2147483647,0,0,1,1,2,2,3,3,4,4,5,5,6,6,7,7,8,8,9,9,10,10,11,11,12,12,13,13,14,14,15,15,16,16,17,17,18,18,19,19,20,20,21,21,22,22,23,23,24,24,25,25,26,26,27,27,28,28,29,29,30,30,31,31,32,32,33,33,34,34,35,35,36,36,37,37,38,38,39,39,40,40,43,43,44,44,45,45,46,46,47,47,48,48,49,49,50,50,51,51,52,52,53,53,54,54,55,55,56,56,57,57,58,58],"right_children":[2,4,6,8,10,12,14,16,18,20,22,24,26,28,30,32,34,36,38,40,42,44,46,48,50,52,54,56,58,60,62,64,66,68,70,72,74,76,78,80,82,-1,-1,84,86,88,90,92,94,96,98,100,102,104,106,108,110,112,114,-1,-1,-1,-1,-1,-1,-1,-1,-1,-1,-1,-1,-1,-1,-1,-1,-1,-1,-1,-1,-1,-1,-1,-1,-1,-1,-1,-1,-1,-1,-1,-1,-1,-1,-1,-1,-1,-1,-1,-1,-1,-1,-1,-1,-1,-1,-1,-1,-1,-1,-1,-1,-1,-1,-1,-1],"split_conditions":[1.3631342E1,1.2030603E1,1.5264799E1,1.955E2,3.770532E0,5E-1,1.768797E1,2.5E0,1.511658E-1,3.3282714E0,5.2774763E0,3.5715866E0,2.935E2,2.7810553E1,2.5E0,1.1204321E1,7.0908485E1,7.5E0,3.325E2,6.3115757E3,2.0225E3,8.5E0,1.2747393E1,3.3142648E0,1.75E1,1.5116355E1,9.5E0,4.1E1,6.75E1,2.5E0,1.2552288E1,1.0492346E1,6.02526E0,1.0799072E1,4.62097E0,4.287762E0,5.122098E0,1.1340797E1,1.168548E1,5.5E0,7.5E0,-9.7913764E-2,2.0386219E-2,3.5E0,8.9388475E-2,1.2691395E1,6.091875E0,6.2688484E0,1.5423624E1,9.5E0,1.4434473E1,4.1572504E0,8.016359E0,3.8661792E0,4.248712E1,2.5631213E0,1.8042809E1,2.6596808E-1,2.6584727E-1,9.06498E-2,-1.3749233E-1,1.16018556E-1,1.7619038E-1,1.4925347E-2,3.5203267E-2,4.8407942E-2,4.236915E-2,3.544784E-2,5.5357147E-2,4.5545094E-2,-1.1644695E-2,4.2325336E-2,3.591439E-2,2.9684471E-2,-1.518821E-1,3.7345495E-2,4.74143E-2,7.6441385E-2,4.960982E-2,4.4672936E-2,1.7273774E-2,5.2174676E-2,1.3263601E-1,4.886673E-2,6.9533356E-2,1.3164139E-2,1.1071402E-1,4.9710862E-2,4.0496804E-2,4.1219153E-2,5.4181743E-2,9.614407E-2,5.9048433E-2,7.027123E-3,5.2536458E-2,6.360667E-2,8.42948E-2,-2.273921E-2,9.9297814E-2,5.7509705E-2,3.4994856E-2,-5.379728E-2,5.5453837E-2,7.1019664E-2,3.3034846E-2,5.064692E-2,8.950202E-2,-2.748069E-1,3.8935825E-2,8.3157E-2,5.718067E-2,1.2829278E-2,7.783484E-2,8.061801E-2,1.1223576E-1],"split_indices":[8,8,8,3,9,23,8,7,4,9,9,10,3,6,7,8,6,7,3,5,1,7,8,10,7,8,7,3,3,2,9,8,9,8,10,10,10,8,8,7,7,0,0,7,4,8,9,9,6,7,8,10,9,10,6,10,6,4,4,0,0,0,0,0,0,0,0,0,0,0,0,0,0,0,0,0,0,0,0,0,0,0,0,0,0,0,0,0,0,0,0,0,0,0,0,0,0,0,0,0,0,0,0,0,0,0,0,0,0,0,0,0,0,0,0],"split_type":[0,0,0,0,0,0,0,0,0,0,0,0,0,0,0,0,0,0,0,0,0,0,0,0,0,0,0,0,0,0,0,0,0,0,0,0,0,0,0,0,0,0,0,0,0,0,0,0,0,0,0,0,0,0,0,0,0,0,0,0,0,0,0,0,0,0,0,0,0,0,0,0,0,0,0,0,0,0,0,0,0,0,0,0,0,0,0,0,0,0,0,0,0,0,0,0,0,0,0,0,0,0,0,0,0,0,0,0,0,0,0,0,0,0,0],"sum_hessian":[2.9995E4,1.7852E4,1.2143E4,3.623E3,1.4229E4,1.0384E4,1.759E3,1.574E3,2.049E3,2.71E2,1.3958E4,8.781E3,1.603E3,1.723E3,3.6E1,6.3E2,9.44E2,1.008E3,1.041E3,2.66E2,5E0,4.55E2,1.3503E4,6.97E3,1.811E3,9.58E2,6.45E2,1.261E3,4.62E2,4E0,3.2E1,1.72E2,4.58E2,8.74E2,7E1,8.95E2,1.13E2,9.84E2,5.7E1,2.34E2,3.2E1,4E0,1E0,3.98E2,5.7E1,4.665E3,8.838E3,5.924E3,1.046E3,1.765E3,4.6E1,9.11E2,4.7E1,3.53E2,2.92E2,5.4E1,1.207E3,1.87E2,2.75E2,3E0,1E0,2.6E1,6E0,1.4E1,1.58E2,2.07E2,2.51E2,3.8E1,8.36E2,5.2E1,1.8E1,5.96E2,2.99E2,1.09E2,4E0,2.61E2,7.23E2,2.9E1,2.8E1,1.18E2,1.16E2,2.6E1,6E0,1.72E2,2.26E2,1E0,5.6E1,4.247E3,4.18E2,6.46E2,8.192E3,4.8E1,5.876E3,9.3E1,9.53E2,1.568E3,1.97E2,2.9E1,1.7E1,5.11E2,4E2,2.8E1,1.9E1,1.32E2,2.21E2,6.7E1,2.25E2,4E0,5E1,3.58E2,8.49E2,3.9E1,1.48E2,1.92E2,8.3E1],"tree_param":{"num_deleted":"0","num_feature":"25","num_nodes":"115","size_leaf_vector":"0"}},{"base_weights":[1.26527E-1,1.1669544E-1,1.3793856E-1,9.5961474E-2,1.1890719E-1,1.337258E-1,1.6366762E-1,9.925592E-2,4.8427776E-2,1.4956985E-1,1.1767474E-1,1.3287969E-1,2.152046E-1,1.4008084E-1,1.9513728E-1,9.381196E-2,1.2210813E-1,3.435743E-2,1.6298364E-1,1.5928783E-1,8.2690135E-2,1.5689799E-1,1.1673136E-1,1.3297339E-1,-4.8680687E-1,5.626259E-1,1.889364E-1,1.4566913E-1,-1.3206096E-1,1.4746782E-1,2.6471862E-1,9.991607E-2,7.24391E-2,8.31111E-2,1.3893957E-1,7.105162E-2,-4.2487165E-5,3.2918048E-1,5.9512258E-2,1.2127586E-1,1.770048E-1,2.1148546E-2,1.0551435E-1,1.17060274E-1,1.7664376E-1,7.116283E-2,1.1778616E-1,1.3214278E-1,2.1017946E-1,6.1983764E-1,8.107185E-2,3.5142028E-1,1.5683696E-1,5.8017486E-1,1.427424E-1,1.24010295E-1,-8.782646E-1,-1.6963878E-1,1.5976396E-1,2.013128E-1,3.604591E-1,9.3657926E-2,1.478772E-1,4.7003247E-2,9.6046545E-2,8.3754554E-2,1.4208794E-2,1.5647821E-1,1.0753521E-1,-3.0829033E-2,1.0491974E-1,-6.388908E-2,3.587255E-2,9.306264E-2,2.0769501E-2,-1.9932428E-2,1.2321399E-1,1.8031271E-1,-1.3900484E-3,5.174468E-2,-2.5395712E-2,1.4614674E-1,1.8387636E-2,1.3942657E-1,6.450983E-2,1.8437673E-1,9.60578E-2,7.529382E-2,-1.19586535E-1,1.19052954E-1,9.145833E-2,1.446571E-1,1.2646785E-1,9.813803E-2,2.4035452E-1,1.1915922E-1,3.8992855E-1,-4.897631E-2,1.8646914E-1,1.5096426E-1,1.901393E-2,-4.470285E-1,2.2332942E-1,9.914112E-2,-1.3917527E0,2.2986221E-1,-6.39069E-1,1.3210264E-1,2.5796816E-1,2.1348761E-1,-2.3806667E-1,2.8772962E-1,4.3670246E-1],"categories":[],"categories_nodes":[],"categories_segments":[],"categories_sizes":[],"default_left":[1,1,1,1,1,1,1,1,1,1,1,1,1,1,1,1,1,1,1,1,1,1,1,1,0,1,1,1,1,1,1,1,1,1,1,1,1,0,1,1,1,1,1,1,1,1,1,1,1,0,0,1,1,0,1,1,1,1,1,1,1,0,0,0,0,0,0,0,0,0,0,0,0,0,0,0,0,0,0,0,0,0,0,0,0,0,0,0,0,0,0,0,0,0,0,0,0,0,0,0,0,0,0,0,0,0,0,0,0,0,0,0,0],"id":13,"left_children":[1,3,5,7,9,11,13,15,17,19,21,23,25,27,29,31,33,35,37,39,41,43,45,47,-1,49,51,53,55,57,59,61,63,65,67,69,71,-1,73,75,77,79,81,83,85,87,89,91,93,-1,-1,95,97,-1,99,101,103,105,107,109,111,-1,-1,-1,-1,-1,-1,-1,-1,-1,-1,-1,-1,-1,-1,-1,-1,-1,-1,-1,-1,-1,-1,-1,-1,-1,-1,-1,-1,-1,-1,-1,-1,-1,-1,-1,-1,-1,-1,-1,-1,-1,-1,-1,-1,-1,-1,-1,-1,-1,-1,-1,-1],"loss_changes":[3.3492737E0,7.2784424E-1,1.4822388E0,2.3932743E-1,5.326996E-1,7.938843E-1,1.4186058E0,1.6980553E-1,1.6041988E-1,3.5014248E-1,4.998474E-1,7.504883E-1,9.97962E-1,1.7179813E0,2.7206268E0,1.4683819E-1,1.7026854E-1,1.1739479E-1,1.6957253E-1,3.065071E-1,1.0030714E-1,2.357626E-1,6.4912415E-1,7.2950745E-1,0E0,1.7015266E-1,5.3946733E-1,1.3096771E0,4.503784E0,1.9611015E0,1.9731941E0,2.610855E-1,1.5521193E-1,2.6228428E-3,8.892441E-2,1.5850735E-1,1.1465144E-1,0E0,8.46581E-3,4.569745E-2,1.949873E-1,3.1219654E-2,1.8494153E-1,1.2147033E-1,1.1689329E-1,2.5485516E-1,4.3496704E-1,8.11615E-1,3.95638E-1,0E0,0E0,1.1452794E-1,6.007061E-1,0E0,1.1049461E0,1.1207058E0,3.1492968E0,3.7101169E0,1.2643881E0,1.1474447E0,6.1185074E-1,0E0,0E0,0E0,0E0,0E0,0E0,0E0,0E0,0E0,0E0,0E0,0E0,0E0,0E0,0E0,0E0,0E0,0E0,0E0,0E0,0E0,0E0,0E0,0E0,0E0,0E0,0E0,0E0,0E0,0E0,0E0,0E0,0E0,0E0,0E0,0E0,0E0,0E0,0E0,0E0,0E0,0E0,0E0,0E0,0E0,0E0,0E0,0E0,0E0,0E0,0E0,0E0],"parents":[2147483647,0,0,1,1,2,2,3,3,4,4,5,5,6,6,7,7,8,8,9,9,10,10,11,11,12,12,13,13,14,14,15,15,16,16,17,17,18,18,19,19,20,20,21,21,22,22,23,23,25,25,26,26,27,27,28,28,29,29,30,30,31,31,32,32,33,33,34,34,35,35,36,36,38,38,39,39,40,40,41,41,42,42,43,43,44,44,45,45,46,46,47,47,48,48,51,51,52,52,54,54,55,55,56,56,57,57,58,58,59,59,60,60],"right_children":[2,4,6,8,10,12,14,16,18,20,22,24,26,28,30,32,34,36,38,40,42,44,46,48,-1,50,52,54,56,58,60,62,64,66,68,70,72,-1,74,76,78,80,82,84,86,88,90,92,94,-1,-1,96,98,-1,100,102,104,106,108,110,112,-1,-1,-1,-1,-1,-1,-1,-1,-1,-1,-1,-1,-1,-1,-1,-1,-1,-1,-1,-1,-1,-1,-1,-1,-1,-1,-1,-1,-1,-1,-1,-1,-1,-1,-1,-1,-1,-1,-1,-1,-1,-1,-1,-1,-1,-1,-1,-1,-1,-1,-1,-1],"split_conditions":[1.347839E1,1.1521111E1,5E-1,6.5E0,1.4546928E1,5.7143707E0,2.9514995E0,5.7489805E3,1.4E1,7.9246445E0,1.1612896E1,5.7125664E0,5.753705E0,2.9354072E0,1.795E2,1.1395979E1,1.5E0,2.885E2,5E-1,2.5E0,2.2240508E0,1.1544098E1,1.1700133E1,1.0867699E1,-1.4604206E-1,2.55E2,3.9E1,2.5559938E0,2.103023E1,6.1025615E3,5.5E0,1.134014E1,1.1459648E1,5E-1,5.791996E0,4.5714073E0,3.04E2,9.8754145E-2,3.585E2,2.2086003E0,1.3457632E1,1.965E2,2.6783257E0,4.203703E0,5.0319298E1,1.1699118E1,1.3419549E1,1.355E2,2.535E2,1.8595129E-1,2.4321558E-2,1.5E0,1.5E0,1.7405246E-1,1.641558E1,1.495E2,4.5E0,7.5E0,9.996296E0,8.902767E-1,1.848597E1,2.8097378E-2,4.4363163E-2,1.4100974E-2,2.8813964E-2,2.5126368E-2,4.2626383E-3,4.6943467E-2,3.2260567E-2,-9.24871E-3,3.1475924E-2,-1.9166725E-2,1.0761765E-2,2.7918793E-2,6.2308507E-3,-5.979729E-3,3.69642E-2,5.4093815E-2,-4.1701455E-4,1.5523405E-2,-7.6187137E-3,4.3844026E-2,5.516291E-3,4.1827973E-2,1.935295E-2,5.531302E-2,2.8817343E-2,2.2588145E-2,-3.587596E-2,3.571589E-2,2.7437499E-2,4.3397132E-2,3.7940357E-2,2.9441409E-2,7.210636E-2,3.5747766E-2,1.1697857E-1,-1.4692893E-2,5.5940744E-2,4.5289278E-2,5.7041794E-3,-1.3410856E-1,6.699883E-2,2.9742338E-2,-4.1752583E-1,6.895867E-2,-1.9172071E-1,3.9630793E-2,7.739045E-2,6.4046286E-2,-7.142001E-2,8.631889E-2,1.3101074E-1],"split_indices":[8,8,18,7,6,10,10,5,7,9,8,10,10,10,3,8,7,3,0,7,10,8,8,9,0,3,3,9,6,5,7,8,8,22,9,9,3,0,3,10,8,3,10,10,6,8,8,3,3,0,0,7,2,0,8,3,7,7,9,4,6,0,0,0,0,0,0,0,0,0,0,0,0,0,0,0,0,0,0,0,0,0,0,0,0,0,0,0,0,0,0,0,0,0,0,0,0,0,0,0,0,0,0,0,0,0,0,0,0,0,0,0,0],"split_type":[0,0,0,0,0,0,0,0,0,0,0,0,0,0,0,0,0,0,0,0,0,0,0,0,0,0,0,0,0,0,0,0,0,0,0,0,0,0,0,0,0,0,0,0,0,0,0,0,0,0,0,0,0,0,0,0,0,0,0,0,0,0,0,0,0,0,0,0,0,0,0,0,0,0,0,0,0,0,0,0,0,0,0,0,0,0,0,0,0,0,0,0,0,0,0,0,0,0,0,0,0,0,0,0,0,0,0,0,0,0,0,0,0],"sum_hessian":[2.9995E4,1.6119E4,1.3876E4,1.558E3,1.4561E4,1.1929E4,1.947E3,1.456E3,1.02E2,5.58E2,1.4003E4,1.1809E4,1.2E2,1.116E3,8.31E2,1.18E3,2.76E2,9.2E1,1E1,4.86E2,7.2E1,3.25E2,1.3678E4,1.1808E4,1E0,7E0,1.13E2,1.094E3,2.2E1,4.95E2,3.36E2,9.15E2,2.65E2,8.5E1,1.91E2,4.4E1,4.8E1,3E0,7E0,1.57E2,3.29E2,2E1,5.2E1,1.1E2,2.15E2,3.11E2,1.3367E4,1.1685E4,1.23E2,6E0,1E0,1.7E1,9.6E1,6E0,1.088E3,1.7E1,5E0,1.8E1,4.77E2,2.04E2,1.32E2,8.12E2,1.03E2,1.29E2,1.36E2,8.4E1,1E0,1.2E2,7.1E1,1.1E1,3.3E1,1.7E1,3.1E1,3E0,4E0,2E0,1.55E2,3.23E2,6E0,1.2E1,8E0,3.5E1,1.7E1,7.6E1,3.4E1,1.95E2,2E1,3.05E2,6E0,1.275E4,6.17E2,3.638E3,8.047E3,2.7E1,9.6E1,3E0,1.4E1,1.2E1,8.4E1,1.02E3,6.8E1,2E0,1.5E1,2E0,3E0,1E1,8E0,3.74E2,1.03E2,1.99E2,5E0,7E1,6.2E1],"tree_param":{"num_deleted":"0","num_feature":"25","num_nodes":"113","size_leaf_vector":"0"}},{"base_weights":[8.8606395E-2,8.4667996E-2,1.0655372E-1,7.54435E-2,8.856372E-2,4.739553E-2,1.1005301E-1,7.47319E-2,1.5015042E-1,9.296685E-2,8.0777556E-2,5.694414E-2,1.0116002E-2,1.247821E-1,9.865156E-2,6.5941975E-2,7.922321E-2,7.509165E-2,2.1478343E-1,8.159948E-2,1.0849263E-1,8.753114E-2,4.9193766E-2,9.554216E-2,5.079137E-2,-5.2238148E-2,2.4310883E-2,1.0809204E-1,1.4291322E-1,6.6572785E-2,1.1094442E-1,3.340594E-2,6.732318E-2,8.28428E-2,5.644783E-2,8.94062E-2,1.918292E-2,8.764877E-2,2.9170325E-1,8.357843E-2,6.430178E-2,1.1588116E-1,8.071473E-2,8.8191636E-2,-2.6084822E-1,6.404465E-2,-6.354772E-2,4.701004E-2,1.00796394E-1,5.8711853E-2,1.8665047E-2,-1.4759381E-2,-7.690021E-2,3.21831E-2,-4.140663E-2,1.1086627E-1,-8.479253E-2,8.809821E-2,1.561919E-1,7.570326E-2,-1.085706E-1,9.746947E-2,1.498943E-1,-1.3776779E-2,3.598007E-2,7.123573E-2,5.4743197E-2,7.474641E-2,9.970634E-2,-8.935855E-2,6.0209107E-2,6.178093E-2,1.16487265E-1,-6.3757896E-3,3.5793304E-2,1.087273E-1,2.501011E-3,1.5825415E-1,3.4342924E-1,7.492799E-2,8.7484404E-2,7.875714E-2,3.939305E-2,1.2681806E-1,9.163901E-2,5.989924E-2,1.1207758E-1,3.1421557E-2,9.221729E-2,-7.817777E-1,-3.2893658E-2,6.843764E-2,-2.6663956E-1,-4.796163E-2,-1.029284E0,1.051825E-1,4.8184156E-2,5.006288E-3,6.512315E-2,6.68175E-3,4.5804832E-2,-2.9809952E-2,1.0227839E-2,-7.16238E-2,3.599681E-2,1.5220642E-3,-6.3251495E-2,1.4982662E-1,1.0040018E-1,-5.634775E-1,1.0583958E-1,9.606591E-2,-3.4426236E-1,1.6284049E-1,3.0398803E-2,6.508308E-2,1.778473E-1,9.516297E-2,-3.6286512E-1,1.0508221E-1,3.5918797E-3,1.2614961E-1,2.7503085E-1],"categories":[],"categories_nodes":[],"categories_segments":[],"categories_sizes":[],"default_left":[1,1,1,1,1,1,1,1,1,1,1,1,1,1,1,1,1,1,1,1,1,1,1,1,1,1,1,1,1,1,1,1,1,1,1,1,1,1,1,1,1,1,1,1,1,1,1,0,1,1,1,1,0,1,1,1,1,1,1,1,1,1,1,0,0,0,0,0,0,0,0,0,0,0,0,0,0,0,0,0,0,0,0,0,0,0,0,0,0,0,0,0,0,0,0,0,0,0,0,0,0,0,0,0,0,0,0,0,0,0,0,0,0,0,0,0,0,0,0,0,0,0,0],"id":14,"left_children":[1,3,5,7,9,11,13,15,17,19,21,23,25,27,29,31,33,35,37,39,41,43,45,47,49,51,53,55,57,59,61,63,65,67,69,71,73,75,77,79,81,83,85,87,89,91,93,-1,95,97,99,101,-1,103,105,107,109,111,113,115,117,119,121,-1,-1,-1,-1,-1,-1,-1,-1,-1,-1,-1,-1,-1,-1,-1,-1,-1,-1,-1,-1,-1,-1,-1,-1,-1,-1,-1,-1,-1,-1,-1,-1,-1,-1,-1,-1,-1,-1,-1,-1,-1,-1,-1,-1,-1,-1,-1,-1,-1,-1,-1,-1,-1,-1,-1,-1,-1,-1,-1,-1],"loss_changes":[2.1112213E0,8.774414E-1,1.1114082E0,3.774948E-1,5.8532715E-1,1.0728216E-1,8.4280396E-1,2.8079605E-1,3.1375813E-1,1.9393845E0,1.3296967E0,5.23811E-2,5.7031862E-2,6.5573883E-1,1.1263428E0,1.0812092E-1,3.9020157E-1,2.4695098E-2,3.264829E-1,2.1292114E-1,9.4766617E-1,1.2082634E0,1.8525093E0,3.4215152E-3,5.233985E-2,9.956643E-3,2.8234402E-2,6.295891E-1,7.57782E-1,1.2859342E0,1.0754986E0,1.2884028E-2,1.1201286E-1,5.5656815E-1,3.673358E-1,1.2254462E-2,3.6245307E-3,2.6649907E-2,9.7512364E-2,1.8667984E-1,2.3418021E-1,9.643364E-1,6.350217E-1,1.1722374E0,1.161767E0,1.4360781E0,1.8923495E0,0E0,1.3932288E-3,5.752015E-2,1.36785805E-2,2.5613229E-3,0E0,2.118504E-2,5.722902E-3,4.5102978E-1,1.6109346E0,7.5305927E-1,7.076149E-1,8.1286526E-1,2.1068647E0,1.104495E0,1.546052E0,0E0,0E0,0E0,0E0,0E0,0E0,0E0,0E0,0E0,0E0,0E0,0E0,0E0,0E0,0E0,0E0,0E0,0E0,0E0,0E0,0E0,0E0,0E0,0E0,0E0,0E0,0E0,0E0,0E0,0E0,0E0,0E0,0E0,0E0,0E0,0E0,0E0,0E0,0E0,0E0,0E0,0E0,0E0,0E0,0E0,0E0,0E0,0E0,0E0,0E0,0E0,0E0,0E0,0E0,0E0,0E0,0E0,0E0,0E0,0E0],"parents":[2147483647,0,0,1,1,2,2,3,3,4,4,5,5,6,6,7,7,8,8,9,9,10,10,11,11,12,12,13,13,14,14,15,15,16,16,17,17,18,18,19,19,20,20,21,21,22,22,23,23,24,24,25,25,26,26,27,27,28,28,29,29,30,30,31,31,32,32,33,33,34,34,35,35,36,36,37,37,38,38,39,39,40,40,41,41,42,42,43,43,44,44,45,45,46,46,48,48,49,49,50,50,51,51,53,53,54,54,55,55,56,56,57,57,58,58,59,59,60,60,61,61,62,62],"right_children":[2,4,6,8,10,12,14,16,18,20,22,24,26,28,30,32,34,36,38,40,42,44,46,48,50,52,54,56,58,60,62,64,66,68,70,72,74,76,78,80,82,84,86,88,90,92,94,-1,96,98,100,102,-1,104,106,108,110,112,114,116,118,120,122,-1,-1,-1,-1,-1,-1,-1,-1,-1,-1,-1,-1,-1,-1,-1,-1,-1,-1,-1,-1,-1,-1,-1,-1,-1,-1,-1,-1,-1,-1,-1,-1,-1,-1,-1,-1,-1,-1,-1,-1,-1,-1,-1,-1,-1,-1,-1,-1,-1,-1,-1,-1,-1,-1,-1,-1,-1,-1,-1,-1],"split_conditions":[1.4418655E1,1.2565517E1,1.5E0,5E-1,5.5E0,1.5546926E1,5.5E0,2.5E0,2.5E0,3.5E0,5.5389995E3,1.4508885E1,1.57108555E1,1.4936396E1,1.6119897E-1,1.0811333E1,7.1052046E0,3.9E1,2.6588044E0,4.0959196E0,2.7908161E1,1.441333E1,1.4164945E1,1.4423215E1,5E-1,1.5629763E1,3.175E2,1.4929686E1,2.5E0,1.55469475E1,9.5E0,1.02708235E1,1.2314684E1,3.8896514E3,5.6890883E-2,1.5E0,4.3E1,4.05E1,3.5E0,1.5E0,2.5E0,5E-1,2.685E2,5.9142494E0,2.5874707E3,4.7292976E0,2.2268033E4,1.4103013E-2,5E-1,1.4568465E1,1.0120108E1,3.853792E-1,-2.3070063E-2,2.5E1,2.508335E-1,1.4509575E1,7.8E1,5E-1,7.648852E-1,5.362689E1,3.0906284E3,5E-1,3.9025507E0,-4.133034E-3,1.0794021E-2,2.137072E-2,1.6422959E-2,2.2423923E-2,2.9911902E-2,-2.6807567E-2,1.8062733E-2,1.853428E-2,3.494618E-2,-1.9127369E-3,1.0737992E-2,3.261819E-2,7.503033E-4,4.7476247E-2,1.03028774E-1,2.2478398E-2,2.6245322E-2,2.3627141E-2,1.1817915E-2,3.804542E-2,2.7491705E-2,1.7969772E-2,3.3623274E-2,9.426467E-3,2.7665189E-2,-2.3453331E-1,-9.8680975E-3,2.0531293E-2,-7.999187E-2,-1.438849E-2,-3.087852E-1,3.155475E-2,1.4455248E-2,1.5018865E-3,1.9536946E-2,2.0045252E-3,1.374145E-2,-8.942986E-3,3.068352E-3,-2.1487141E-2,1.0799043E-2,4.5661928E-4,-1.897545E-2,4.4947986E-2,3.0120054E-2,-1.6904326E-1,3.1751875E-2,2.8819773E-2,-1.0327871E-1,4.885215E-2,9.119641E-3,1.9524924E-2,5.3354193E-2,2.8548893E-2,-1.0885954E-1,3.1524662E-2,1.077564E-3,3.7844885E-2,8.250926E-2],"split_indices":[8,8,7,13,7,8,7,7,7,7,5,8,8,8,4,8,9,3,10,10,6,8,8,8,18,8,3,8,7,8,7,8,8,5,4,7,3,3,7,7,7,16,3,9,5,10,5,0,22,8,9,4,0,3,4,8,3,13,4,6,5,15,10,0,0,0,0,0,0,0,0,0,0,0,0,0,0,0,0,0,0,0,0,0,0,0,0,0,0,0,0,0,0,0,0,0,0,0,0,0,0,0,0,0,0,0,0,0,0,0,0,0,0,0,0,0,0,0,0,0,0,0,0],"split_type":[0,0,0,0,0,0,0,0,0,0,0,0,0,0,0,0,0,0,0,0,0,0,0,0,0,0,0,0,0,0,0,0,0,0,0,0,0,0,0,0,0,0,0,0,0,0,0,0,0,0,0,0,0,0,0,0,0,0,0,0,0,0,0,0,0,0,0,0,0,0,0,0,0,0,0,0,0,0,0,0,0,0,0,0,0,0,0,0,0,0,0,0,0,0,0,0,0,0,0,0,0,0,0,0,0,0,0,0,0,0,0,0,0,0,0,0,0,0,0,0,0,0,0],"sum_hessian":[2.9995E4,2.4602E4,5.393E3,7.311E3,1.7291E4,3.02E2,5.091E3,7.244E3,6.7E1,1.1038E4,6.253E3,2.4E2,6.2E1,2.217E3,2.874E3,2.455E3,4.789E3,3.2E1,3.5E1,6.376E3,4.662E3,5.15E3,1.103E3,3.1E1,2.09E2,1.1E1,5.1E1,1.158E3,1.059E3,7.98E2,2.076E3,1.01E2,2.354E3,4.13E3,6.59E2,2.5E1,7E0,1.4E1,2.1E1,5.718E3,6.58E2,3.68E3,9.82E2,5.141E3,9E0,9.75E2,1.28E2,4E0,2.7E1,1.67E2,4.2E1,5E0,6E0,4.6E1,5E0,1.142E3,1.6E1,2.08E2,8.51E2,7.59E2,3.9E1,1.545E3,5.31E2,5E0,9.6E1,1.792E3,5.62E2,2.794E3,1.336E3,1.6E1,6.43E2,1.4E1,1.1E1,3E0,4E0,1.1E1,3E0,7E0,1.4E1,1.785E3,3.933E3,4.15E2,2.43E2,2.533E3,1.147E3,5.92E2,3.9E2,3.41E2,4.8E3,2E0,7E0,9.63E2,1.2E1,1.27E2,1E0,2.4E1,3E0,1.8E1,1.49E2,3E1,1.2E1,3E0,2E0,1E0,4.5E1,2E0,3E0,2.39E2,9.03E2,4E0,1.2E1,2.05E2,3E0,8.08E2,4.3E1,6.89E2,7E1,2.2E1,1.7E1,1.429E3,1.16E2,4.48E2,8.3E1],"tree_param":{"num_deleted":"0","num_feature":"25","num_nodes":"123","size_leaf_vector":"0"}},{"base_weights":[6.202619E-2,5.837851E-2,7.240409E-2,5.8464337E-2,-5.961291E-1,8.1208184E-2,6.335708E-2,5.976645E-2,4.2148408E-2,3.445964E-2,8.494632E-2,6.582454E-2,-2.983077E-2,5.8292255E-2,1.19390786E-1,6.955396E-4,5.820425E-2,5.730957E-2,2.2565011E-2,5.7271082E-2,9.115034E-2,6.2567994E-2,1.3201213E-1,-7.612629E-1,8.57539E-3,6.12598E-2,4.731336E-2,-1.7122826E-1,1.2696564E-1,6.8539553E-3,-2.2978981E-1,5.9825268E-2,-4.353583E-1,7.3713526E-2,4.606661E-2,1.9535927E-2,1.0112667E-1,6.0893025E-2,-7.707198E-1,2.0816332E-1,8.871891E-2,4.862468E-2,7.78485E-2,-4.3626714E-1,1.4446041E-1,1.1231105E-2,-1.2800026E0,-2.3229782E-2,3.61336E-1,5.42814E-2,6.733743E-2,-3.5423252E-3,5.420678E-2,-1.011493E-2,-7.0490104E-1,1.0963994E-1,1.9222668E-1,-4.578956E-1,9.957747E-3,-5.481968E-2,-7.36427E-1,1.568622E-1,5.0416864E-2,4.0796917E-2,9.051494E-2,6.0281754E-3,5.1886592E-2,2.6054153E-2,-5.3958176E-3,3.7032604E-2,1.3993907E-1,-2.449578E-1,6.449169E-2,4.2606655E-1,1.7606173E-1,9.161835E-2,-6.9158706E-3,2.125303E-2,6.648325E-2,7.095662E-2,1.4305355E-1,1.7790194E-1,2.9655814E-2,-7.00264E-2,8.6873055E-2,5.662229E-2,-5.9460104E-1],"categories":[],"categories_nodes":[],"categories_segments":[],"categories_sizes":[],"default_left":[1,1,1,1,0,1,1,1,1,1,1,1,1,1,1,1,1,1,1,1,1,1,1,1,1,1,1,1,1,1,1,1,0,1,1,1,1,1,0,1,1,1,1,0,1,1,0,1,0,0,0,0,0,0,0,0,0,0,0,0,0,0,0,0,0,0,0,0,0,0,0,0,0,0,0,0,0,0,0,0,0,0,0,0,0,0,0],"id":15,"left_children":[1,3,5,7,-1,9,11,13,15,17,19,21,23,25,27,29,31,33,35,37,39,41,43,45,47,49,51,53,55,57,59,61,-1,63,65,67,69,71,-1,73,75,77,79,-1,81,83,-1,85,-1,-1,-1,-1,-1,-1,-1,-1,-1,-1,-1,-1,-1,-1,-1,-1,-1,-1,-1,-1,-1,-1,-1,-1,-1,-1,-1,-1,-1,-1,-1,-1,-1,-1,-1,-1,-1,-1,-1],"loss_changes":[1.131279E0,1.2818985E0,6.158905E-1,4.690857E-1,0E0,6.8699455E-1,8.8722134E-1,1.7997742E0,1.094141E0,7.861349E-2,6.2233543E-1,8.0023956E-1,2.815678E0,6.506958E-1,1.1114326E0,6.5451026E-1,9.7413397E-1,1.5047163E-2,4.4428505E-2,2.0622163E0,8.305073E-1,7.5833416E-1,1.300991E0,2.0179925E0,1.0854765E0,6.6599274E-1,1.4981766E0,1.1106334E0,5.250497E-1,6.522356E-1,1.0233858E0,1.0712137E0,0E0,1.7876074E-2,1.413466E-2,3.0855104E-2,1.2231201E-2,7.532358E-1,0E0,3.4468842E-1,8.116989E-1,9.14145E-1,7.5605106E-1,0E0,6.550739E-1,2.4522835E-2,0E0,4.094308E0,0E0,0E0,0E0,0E0,0E0,0E0,0E0,0E0,0E0,0E0,0E0,0E0,0E0,0E0,0E0,0E0,0E0,0E0,0E0,0E0,0E0,0E0,0E0,0E0,0E0,0E0,0E0,0E0,0E0,0E0,0E0,0E0,0E0,0E0,0E0,0E0,0E0,0E0,0E0],"parents":[2147483647,0,0,1,1,2,2,3,3,5,5,6,6,7,7,8,8,9,9,10,10,11,11,12,12,13,13,14,14,15,15,16,16,17,17,18,18,19,19,20,20,21,21,22,22,23,23,24,24,25,25,26,26,27,27,28,28,29,29,30,30,31,31,33,33,34,34,35,35,36,36,37,37,39,39,40,40,41,41,42,42,44,44,45,45,47,47],"right_children":[2,4,6,8,-1,10,12,14,16,18,20,22,24,26,28,30,32,34,36,38,40,42,44,46,48,50,52,54,56,58,60,62,-1,64,66,68,70,72,-1,74,76,78,80,-1,82,84,-1,86,-1,-1,-1,-1,-1,-1,-1,-1,-1,-1,-1,-1,-1,-1,-1,-1,-1,-1,-1,-1,-1,-1,-1,-1,-1,-1,-1,-1,-1,-1,-1,-1,-1,-1,-1,-1,-1,-1,-1],"split_conditions":[1.4072407E1,1.4072367E1,2.215E2,1.3889438E1,-1.7883874E-1,1.5E0,9.4397295E3,1.3840691E1,1.3937399E1,1.4355677E1,4.05E1,1.55E1,7.502026E0,5E-1,7.820757E-2,1.3936567E1,2.05E1,1.4164461E1,5.1945615E0,1.0618586E1,6.361768E0,2.1507385E-1,2.315E2,4E0,1.6905003E1,3.5E0,3.565515E1,2.345E2,3.075E2,1.3889723E1,8E0,1.8112715E3,-1.3060749E-1,1.4109892E1,1.4190931E1,1.5546926E1,2.0225E3,1.5194158E1,-2.3121595E-1,1.4249681E1,4.7138786E0,2.705E2,4.251302E0,-1.3088015E-1,5.2559277E1,5E-1,-3.840008E-1,1.5783213E1,1.084008E-1,1.6284421E-2,2.020123E-2,-1.0626976E-3,1.6262036E-2,-3.034479E-3,-2.1147032E-1,3.2891985E-2,5.7668004E-2,-1.373687E-1,2.987324E-3,-1.6445905E-2,-2.2092812E-1,4.705866E-2,1.51250595E-2,1.2239075E-2,2.7154485E-2,1.8084527E-3,1.5565978E-2,7.816247E-3,-1.6187454E-3,1.1109781E-2,4.1981723E-2,-7.348734E-2,1.9347508E-2,1.2781997E-1,5.281852E-2,2.7485507E-2,-2.0747613E-3,6.3759093E-3,1.9944977E-2,2.1286987E-2,4.2916067E-2,5.3370584E-2,8.896745E-3,-2.100792E-2,2.6061917E-2,1.6986687E-2,-1.7838031E-1],"split_indices":[8,8,3,8,0,7,5,8,8,8,3,7,9,23,4,8,7,8,10,9,9,4,3,7,8,7,6,3,3,8,7,5,0,8,8,8,1,6,0,8,10,3,10,0,6,0,0,8,0,0,0,0,0,0,0,0,0,0,0,0,0,0,0,0,0,0,0,0,0,0,0,0,0,0,0,0,0,0,0,0,0,0,0,0,0,0,0],"split_type":[0,0,0,0,0,0,0,0,0,0,0,0,0,0,0,0,0,0,0,0,0,0,0,0,0,0,0,0,0,0,0,0,0,0,0,0,0,0,0,0,0,0,0,0,0,0,0,0,0,0,0,0,0,0,0,0,0,0,0,0,0,0,0,0,0,0,0,0,0,0,0,0,0,0,0,0,0,0,0,0,0,0,0,0,0,0,0],"sum_hessian":[2.9995E4,2.2199E4,7.796E3,2.2197E4,2E0,3.947E3,3.849E3,2.0554E4,1.643E3,2.93E2,3.654E3,3.75E3,9.9E1,2.006E4,4.94E2,4.59E2,1.184E3,9.9E1,1.94E2,6.71E2,2.983E3,3.576E3,1.74E2,4E0,9.5E1,1.5788E4,4.272E3,1.2E1,4.82E2,4.48E2,1.1E1,1.181E3,3E0,3.8E1,6.1E1,1.88E2,6E0,6.69E2,2E0,5.9E1,2.924E3,1.872E3,1.704E3,3E0,1.71E2,2E0,2E0,8.8E1,7E0,7.354E3,8.434E3,5.1E2,3.762E3,1E1,2E0,3.83E2,9.9E1,2E0,4.46E2,9E0,2E0,1.03E2,1.078E3,1.4E1,2.4E1,8E0,5.3E1,1.49E2,3.9E1,3E0,3E0,7E0,6.62E2,6E0,5.3E1,2.838E3,8.6E1,7.4E2,1.132E3,1.543E3,1.61E2,1.32E2,3.9E1,1E0,1E0,7.8E1,1E1],"tree_param":{"num_deleted":"0","num_feature":"25","num_nodes":"87","size_leaf_vector":"0"}},{"base_weights":[4.3382775E-2,4.0076256E-2,5.162322E-2,4.8956312E-2,3.6418084E-2,1.1090011E-2,5.402734E-2,7.2863735E-2,4.609836E-2,3.805028E-2,1.8102424E-2,3.637894E-2,-4.735833E-2,2.9099328E-2,5.7547778E-2,6.1471745E-2,1.590588E-1,4.6534464E-2,-2.0146723E-1,3.760452E-2,1.22126184E-1,2.18739E-2,-1.8290076E-1,-4.6584974E-3,5.9686963E-2,-5.450699E-1,-2.9499765E-2,4.142809E-2,-2.5052305E-2,6.81477E-2,4.1173775E-2,2.770361E-2,7.28439E-2,1.3773721E-1,3.5259777E-1,4.5768585E-2,1.4393035E-1,-9.115934E-3,-6.4724827E-1,3.779177E-2,-1.6466962E-1,5.2053574E-2,1.9671778E-1,2.4375575E-2,-2.124644E-1,-4.607577E-2,-5.6289226E-1,3.1965744E-2,-1.4252454E-1,3.6666885E-2,1.0489813E-1,-1.0347508E-1,3.0803017E-2,4.6437964E-2,-4.7869444E-2,-1.6910806E-1,3.1688493E-2,4.1785058E-2,7.6974034E-2,5.6326706E-2,6.7612473E-3,3.5230227E-2,-7.060823E-2,8.111185E-2,2.9458933E-2,1.9709478E-1,9.450218E-2,4.611902E-2,-9.4572115E-1,-2.0155382E-1,1.748805E-1,5.162406E-2,-5.588474E-2,3.568782E-2,5.277784E-2,-4.8573747E-1,9.671497E-2,1.3510066E-1,-2.5563013E-2,2.2239476E-1,-5.787754E-2,1.6820272E-2,6.108017E-2,-6.89919E-2,-2.4860696E-1,-7.810044E-2,1.5405928E-2,-6.1438674E-1,-1.5270996E-1,-1.5322794E-1,4.570911E-2,-2.585561E-1,6.898155E-2,4.3089464E-2,-9.5187865E-2,2.2308847E-1,7.507504E-2,-3.3096611E-1,-6.5066256E-2,1.08520254E-1,-2.730979E-2,4.119196E-2,1.472369E-1,4.4797927E-2,-2.987156E-1,-8.338875E-2,-9.753357E-1,7.822104E-3,1.539194E-1,4.2667314E-2,-4.5640898E-1,6.6545196E-2,9.387417E-2,5.1998593E-2,1.1980519E-1,4.0478412E-2,-4.0613312E-2],"categories":[],"categories_nodes":[],"categories_segments":[],"categories_sizes":[],"default_left":[1,1,1,1,1,1,1,1,1,1,1,1,1,1,1,1,1,1,1,1,1,1,1,1,1,0,1,1,1,1,1,1,1,1,0,1,1,1,0,1,1,1,1,1,1,1,1,1,1,1,1,1,1,1,1,1,1,1,1,1,1,0,0,0,0,0,0,0,0,0,0,0,0,0,0,0,0,0,0,0,0,0,0,0,0,0,0,0,0,0,0,0,0,0,0,0,0,0,0,0,0,0,0,0,0,0,0,0,0,0,0,0,0,0,0,0,0],"id":16,"left_children":[1,3,5,7,9,11,13,15,17,19,21,23,25,27,29,31,33,35,37,39,41,43,45,47,49,-1,51,53,55,57,59,61,63,65,-1,67,69,71,-1,73,75,77,79,81,83,85,87,89,91,93,95,97,99,101,103,105,107,109,111,113,115,-1,-1,-1,-1,-1,-1,-1,-1,-1,-1,-1,-1,-1,-1,-1,-1,-1,-1,-1,-1,-1,-1,-1,-1,-1,-1,-1,-1,-1,-1,-1,-1,-1,-1,-1,-1,-1,-1,-1,-1,-1,-1,-1,-1,-1,-1,-1,-1,-1,-1,-1,-1,-1,-1,-1,-1],"loss_changes":[8.1524277E-1,6.937485E-1,8.3607674E-1,4.2327023E-1,4.5275116E-1,7.1416503E-1,7.0960045E-1,6.4320827E-1,6.118221E-1,5.1732445E-1,9.462924E-1,3.2261905E-1,1.2816288E0,6.719985E-1,1.2296658E0,2.2416759E-1,2.6917887E-1,4.089737E-1,8.515654E-1,5.309658E-1,3.7131846E-1,7.2097564E-1,1.169888E0,6.2561226E-1,2.1991807E-1,0E0,6.3663757E-1,3.686186E-1,1.5338666E0,9.994259E-1,1.4560308E0,1.1348091E-1,1.5544057E-1,1.6358316E-1,0E0,1.9646883E0,4.9503773E-1,2.5610896E-2,0E0,4.3455505E-1,1.1379666E0,2.5484103E-1,2.4167514E-1,3.342455E-1,5.0259173E-2,3.6643974E-2,3.290975E-2,2.5643206E-1,6.559115E-1,1.2604772E-1,2.3703742E-1,5.3767574E-1,3.5975665E-1,4.0427744E-1,1.0361729E0,3.5814595E0,3.926194E-1,4.954909E-1,5.625076E-1,5.2649546E-1,1.3673661E0,0E0,0E0,0E0,0E0,0E0,0E0,0E0,0E0,0E0,0E0,0E0,0E0,0E0,0E0,0E0,0E0,0E0,0E0,0E0,0E0,0E0,0E0,0E0,0E0,0E0,0E0,0E0,0E0,0E0,0E0,0E0,0E0,0E0,0E0,0E0,0E0,0E0,0E0,0E0,0E0,0E0,0E0,0E0,0E0,0E0,0E0,0E0,0E0,0E0,0E0,0E0,0E0,0E0,0E0,0E0,0E0],"parents":[2147483647,0,0,1,1,2,2,3,3,4,4,5,5,6,6,7,7,8,8,9,9,10,10,11,11,12,12,13,13,14,14,15,15,16,16,17,17,18,18,19,19,20,20,21,21,22,22,23,23,24,24,26,26,27,27,28,28,29,29,30,30,31,31,32,32,33,33,35,35,36,36,37,37,39,39,40,40,41,41,42,42,43,43,44,44,45,45,46,46,47,47,48,48,49,49,50,50,51,51,52,52,53,53,54,54,55,55,56,56,57,57,58,58,59,59,60,60],"right_children":[2,4,6,8,10,12,14,16,18,20,22,24,26,28,30,32,34,36,38,40,42,44,46,48,50,-1,52,54,56,58,60,62,64,66,-1,68,70,72,-1,74,76,78,80,82,84,86,88,90,92,94,96,98,100,102,104,106,108,110,112,114,116,-1,-1,-1,-1,-1,-1,-1,-1,-1,-1,-1,-1,-1,-1,-1,-1,-1,-1,-1,-1,-1,-1,-1,-1,-1,-1,-1,-1,-1,-1,-1,-1,-1,-1,-1,-1,-1,-1,-1,-1,-1,-1,-1,-1,-1,-1,-1,-1,-1,-1,-1,-1,-1,-1,-1,-1],"split_conditions":[2.6197806E-1,5E-1,3.75E1,3.85E1,2.3340371E-1,5.5E0,2.4932108E0,1.4206539E1,5E-1,1.5918081E1,5.5380225E0,2.7561417E1,2.5058384E0,1.870379E4,2.845E2,2.5E0,1.5083142E1,1.5888739E1,8E0,1.5891232E1,1.9313404E-1,2.05E1,6.225281E0,1.4648975E1,1.4646275E1,-1.6352096E-1,3.226475E-1,2.4816456E0,8.082886E0,2.5E0,5.9760894E3,5E-1,5E-1,3.2859E3,1.05779335E-1,1.5884729E1,2.5E0,3.5E0,-1.9417448E-1,8.63897E0,3.1907535E0,5.5E0,3.135E2,5.181043E3,1.3501459E1,7E0,5.9080153E0,2.233595E3,4.416378E-1,8.969595E0,2.9886848E-1,1.2391305E1,3.2846046E1,7.5E0,5.5E0,1.3850682E1,2.3194835E0,1.7908415E1,1.4256475E1,1.5445583E1,5.5E0,1.0569069E-2,-2.118247E-2,2.4333555E-2,8.83768E-3,5.9128437E-2,2.8350655E-2,1.3835707E-2,-2.8371635E-1,-6.0466148E-2,5.2464154E-2,1.5487218E-2,-1.6765423E-2,1.07063465E-2,1.5833354E-2,-1.4572124E-1,2.9014492E-2,4.05302E-2,-7.668904E-3,6.671843E-2,-1.7363263E-2,5.0460817E-3,1.8324051E-2,-2.0697571E-2,-7.458209E-2,-2.3430133E-2,4.6217786E-3,-1.8431602E-1,-4.581299E-2,-4.5968384E-2,1.3712734E-2,-7.756683E-2,2.0694466E-2,1.292684E-2,-2.855636E-2,6.692655E-2,2.2522513E-2,-9.928984E-2,-1.9519877E-2,3.255608E-2,-8.192938E-3,1.2357589E-2,4.4171073E-2,1.3439379E-2,-8.961468E-2,-2.5016626E-2,-2.9260072E-1,2.3466311E-3,4.6175823E-2,1.2800195E-2,-1.369227E-1,1.9963559E-2,2.8162252E-2,1.5599579E-2,3.5941556E-2,1.2143524E-2,-1.2183994E-2],"split_indices":[4,0,3,3,4,7,10,8,15,8,10,6,10,5,3,7,8,8,7,8,4,7,9,8,8,0,4,10,9,7,5,24,11,5,0,8,7,7,0,9,10,7,3,5,8,7,10,5,4,9,4,8,6,7,7,8,10,8,8,8,7,0,0,0,0,0,0,0,0,0,0,0,0,0,0,0,0,0,0,0,0,0,0,0,0,0,0,0,0,0,0,0,0,0,0,0,0,0,0,0,0,0,0,0,0,0,0,0,0,0,0,0,0,0,0,0,0],"split_type":[0,0,0,0,0,0,0,0,0,0,0,0,0,0,0,0,0,0,0,0,0,0,0,0,0,0,0,0,0,0,0,0,0,0,0,0,0,0,0,0,0,0,0,0,0,0,0,0,0,0,0,0,0,0,0,0,0,0,0,0,0,0,0,0,0,0,0,0,0,0,0,0,0,0,0,0,0,0,0,0,0,0,0,0,0,0,0,0,0,0,0,0,0,0,0,0,0,0,0,0,0,0,0,0,0,0,0,0,0,0,0,0,0,0,0,0,0],"sum_hessian":[2.9995E4,2.141E4,8.585E3,6.243E3,1.5167E4,4.81E2,8.104E3,6.64E2,5.579E3,1.3925E4,1.242E3,3.36E2,1.45E2,1.004E3,7.1E3,5.88E2,7.6E1,5.57E3,9E0,1.3853E4,7.2E1,1.22E3,2.2E1,1.22E2,2.14E2,4E0,1.41E2,8.18E2,1.86E2,4.308E3,2.792E3,1.49E2,4.39E2,7E1,6E0,5.528E3,4.2E1,7E0,2E0,1.3841E4,1.2E1,3.8E1,3.4E1,1.208E3,1.2E1,1.7E1,5E0,9.7E1,2.5E1,1.43E2,7.1E1,6.3E1,7.8E1,7.75E2,4.3E1,5.2E1,1.34E2,1.082E3,3.226E3,1.938E3,8.54E2,1.39E2,1E1,3.68E2,7.1E1,2.8E1,4.2E1,5.527E3,1E0,3E0,3.9E1,3E0,4E0,1.214E4,1.701E3,5E0,7E0,1.8E1,2E1,3.1E1,3E0,1.003E3,2.05E2,3E0,9E0,1.1E1,6E0,4E0,1E0,6E0,9.1E1,1.6E1,9E0,1.37E2,6E0,1.3E1,5.8E1,8E0,5.5E1,3.3E1,4.5E1,7.38E2,3.7E1,3.2E1,1.1E1,4.8E1,4E0,1.13E2,2.1E1,1.081E3,1E0,1.998E3,1.228E3,1.816E3,1.22E2,4.99E2,3.55E2],"tree_param":{"num_deleted":"0","num_feature":"25","num_nodes":"117","size_leaf_vector":"0"}},{"base_weights":[3.0329047E-2,2.4743771E-2,3.339487E-2,2.7187862E-2,-1.0849622E-2,3.3263396E-2,2.0076104E-1,2.4724664E-2,7.236387E-2,-2.2587039E-2,4.3949988E-2,3.7230942E-2,2.7897453E-2,1.355837E-1,3.0399895E-1,2.4854764E-2,-6.015229E-1,8.592832E-2,-2.9777542E-2,-1.9867443E-2,-1.88088E-1,3.25902E-1,3.8884535E-2,2.932125E-2,4.679281E-2,-2.579328E-1,2.8346267E-2,2.781105E-2,1.5644306E-1,2.5560474E-2,-3.3601742E-2,9.125465E-2,-1.3303916E-2,-7.625387E-2,1.3169684E-1,-4.1000653E-2,4.878979E-3,-6.215884E-1,2.4567604E-2,2.9203448E-2,1.9099304E-1,2.9992292E-2,-7.5545214E-2,4.8403133E-2,-1.7348152E-2,-4.4883293E-1,1.3727398E-1,7.6968916E-2,2.6955238E-2,1.7135143E-1,1.8588066E-2,2.4665974E-2,8.8639386E-2,-4.5633633E-2,1.1050383E-1,1.14505306E-1,6.945846E-2,-2.5437418E-1,2.0174026E-2,-4.238595E-2,-4.3820453E-1,-8.312054E-2,2.2593585E-1,-1.3303132E-1,-3.430452E-2,1.1100315E-3,1.6236162E-1,3.7677605E-2,-2.7046204E-2,-1.8527985E-2,4.647096E-2,2.7713507E-2,5.1156778E-2,-1.9924318E-2,-7.3635453E-1,-3.3534335E-3,5.048726E-2,1.979766E-3,-1.197341E0,3.597641E-2,-6.972337E-1,1.0580221E-1,-5.324048E-2,4.995195E-2,2.4181664E-2,4.9637794E-2,1.8164799E-1],"categories":[],"categories_nodes":[],"categories_segments":[],"categories_sizes":[],"default_left":[1,1,1,1,1,1,1,1,1,1,1,1,1,1,0,1,0,1,1,1,1,0,1,1,1,1,1,0,1,1,1,1,1,1,1,1,1,0,1,1,0,1,1,1,1,1,0,1,1,1,0,0,0,0,0,0,0,0,0,0,0,0,0,0,0,0,0,0,0,0,0,0,0,0,0,0,0,0,0,0,0,0,0,0,0,0,0],"id":17,"left_children":[1,3,5,7,9,11,13,15,17,19,21,23,25,27,-1,29,-1,31,33,35,37,-1,39,41,43,45,47,-1,49,51,53,55,57,59,61,63,65,-1,67,69,-1,71,73,75,77,79,-1,81,83,85,-1,-1,-1,-1,-1,-1,-1,-1,-1,-1,-1,-1,-1,-1,-1,-1,-1,-1,-1,-1,-1,-1,-1,-1,-1,-1,-1,-1,-1,-1,-1,-1,-1,-1,-1,-1,-1],"loss_changes":[5.1280975E-1,9.2538357E-1,4.1938972E-1,1.1055326E0,4.409455E-1,4.108944E-1,5.9714258E-2,7.839203E-1,7.147019E-1,2.5011718E-1,1.6014129E-1,8.3972454E-1,1.062963E0,2.0377904E-2,0E0,3.9016628E-1,0E0,2.4117279E-1,4.678313E-1,2.909721E-1,8.449476E-1,0E0,1.7113143E-1,4.3074703E-1,5.206871E-1,1.0423985E0,5.5368614E-1,0E0,1.53116435E-2,5.2396774E-1,2.0096914E-1,2.1046662E-1,1.9882463E-1,5.6983507E-1,3.0219835E-1,1.8031138E-1,1.5236054E-1,0E0,5.755636E-3,9.4820164E-2,0E0,2.904172E-1,1.4187659E0,5.297985E-1,2.8304138E0,1.108927E0,0E0,8.616283E-1,5.0841904E-1,1.0092407E-3,0E0,0E0,0E0,0E0,0E0,0E0,0E0,0E0,0E0,0E0,0E0,0E0,0E0,0E0,0E0,0E0,0E0,0E0,0E0,0E0,0E0,0E0,0E0,0E0,0E0,0E0,0E0,0E0,0E0,0E0,0E0,0E0,0E0,0E0,0E0,0E0,0E0],"parents":[2147483647,0,0,1,1,2,2,3,3,4,4,5,5,6,6,7,7,8,8,9,9,10,10,11,11,12,12,13,13,15,15,17,17,18,18,19,19,20,20,22,22,23,23,24,24,25,25,26,26,28,28,29,29,30,30,31,31,32,32,33,33,34,34,35,35,36,36,38,38,39,39,41,41,42,42,43,43,44,44,45,45,47,47,48,48,49,49],"right_children":[2,4,6,8,10,12,14,16,18,20,22,24,26,28,-1,30,-1,32,34,36,38,-1,40,42,44,46,48,-1,50,52,54,56,58,60,62,64,66,-1,68,70,-1,72,74,76,78,80,-1,82,84,86,-1,-1,-1,-1,-1,-1,-1,-1,-1,-1,-1,-1,-1,-1,-1,-1,-1,-1,-1,-1,-1,-1,-1,-1,-1,-1,-1,-1,-1,-1,-1,-1,-1,-1,-1,-1,-1],"split_conditions":[1.2953611E1,1.2879755E1,1.796269E1,1.2823252E1,5E-1,5.5E0,1.8263687E1,1.2823183E1,7.5E0,1.2952559E1,2.315E2,3.5E0,4.021482E-2,1.46E2,9.119969E-2,1.95E1,-1.8045688E-1,1.2876736E1,1.2872217E1,1.2918734E1,6.608753E0,9.77706E-2,7.5E0,1.1428658E1,5E-1,7.0430117E0,1.2818525E3,8.343316E-3,2.75E2,1.45E1,1.5539512E-1,7.0521355E0,1.2876886E1,7.708689E0,1.08426675E-1,6.790066E-2,1.95E1,-1.8647653E-1,1.6439913E-1,1.2904161E1,5.7297915E-2,1.4893045E1,3.1346972E0,2.274528E0,1.5358006E1,6.80527E0,4.1182198E-2,2.05E1,5.25E1,3.5E0,5.57642E-3,7.3997923E-3,2.6591817E-2,-1.3690091E-2,3.315115E-2,3.4351595E-2,2.083754E-2,-7.631226E-2,6.052208E-3,-1.2715786E-2,-1.3146137E-1,-2.4936164E-2,6.7780755E-2,-3.99094E-2,-1.0291356E-2,3.3300946E-4,4.8708487E-2,1.1303281E-2,-8.113861E-3,-5.5583958E-3,1.3941288E-2,8.314053E-3,1.5347034E-2,-5.977296E-3,-2.2090636E-1,-1.0060301E-3,1.5146179E-2,5.939298E-4,-3.592023E-1,1.0792923E-2,-2.0917012E-1,3.1740665E-2,-1.5972145E-2,1.4985585E-2,7.2544995E-3,1.4891339E-2,5.44944E-2],"split_indices":[8,8,8,8,14,7,8,8,7,8,3,7,4,3,0,7,0,8,8,8,9,0,7,9,19,9,5,0,3,7,4,9,8,9,4,4,7,0,4,8,0,8,10,10,8,9,0,7,3,7,0,0,0,0,0,0,0,0,0,0,0,0,0,0,0,0,0,0,0,0,0,0,0,0,0,0,0,0,0,0,0,0,0,0,0,0,0],"split_type":[0,0,0,0,0,0,0,0,0,0,0,0,0,0,0,0,0,0,0,0,0,0,0,0,0,0,0,0,0,0,0,0,0,0,0,0,0,0,0,0,0,0,0,0,0,0,0,0,0,0,0,0,0,0,0,0,0,0,0,0,0,0,0,0,0,0,0,0,0,0,0,0,0,0,0,0,0,0,0,0,0,0,0,0,0,0,0],"sum_hessian":[2.9995E4,1.0633E4,1.9362E4,9.95E3,6.83E2,1.9348E4,1.4E1,9.437E3,5.13E2,5.63E2,1.2E2,1.112E4,8.228E3,1E1,4E0,9.436E3,1E0,4.53E2,6E1,5.55E2,8E0,1E0,1.19E2,6.088E3,5.032E3,1.2E1,8.216E3,2E0,8E0,9.324E3,1.12E2,4.3E2,2.3E1,4.7E1,1.3E1,2.99E2,2.56E2,2E0,6E0,1.13E2,6E0,6.05E3,3.8E1,4.909E3,1.23E2,8E0,4E0,2.27E2,7.989E3,7E0,1E0,9.195E3,1.29E2,1.04E2,8E0,2.06E2,2.24E2,2E0,2.1E1,4.4E1,3E0,4E0,9E0,1.9E1,2.8E2,2.51E2,5E0,5E0,1E0,3E1,8.3E1,5.464E3,5.86E2,3.6E1,2E0,1.9E2,4.719E3,1.22E2,1E0,3E0,5E0,1.86E2,4.1E1,8.58E2,7.131E3,1E0,6E0],"tree_param":{"num_deleted":"0","num_feature":"25","num_nodes":"87","size_leaf_vector":"0"}},{"base_weights":[2.1205112E-2,2.0962795E-2,8.869719E-2,1.9626223E-2,3.0995961E-2,-1.0538397E-2,1.2400269E-1,2.1208609E-2,5.717899E-3,-1.0736029E-2,3.5530854E-2,-2.1986675E-1,1.311062E-2,7.863233E-2,1.8818313E-1,1.9410213E-2,3.3099532E-2,1.8052712E-2,-1.7193802E-2,-3.2120444E-2,2.317615E-2,5.5986423E-2,2.772532E-2,-3.6119938E-2,-2.936802E-1,-1.8416071E-2,9.028852E-2,3.8497135E-2,1.3289675E-1,2.2793812E-1,4.0425897E-2,1.8540828E-2,4.6725485E-2,-5.360898E-3,3.7651435E-2,1.1754167E-2,4.4580348E-2,-8.445195E-2,1.1148645E-3,-5.7318937E-3,-2.4871626E-1,7.1542663E-3,2.2113208E-1,3.454382E-2,8.9081116E-2,4.98687E-2,1.6664442E-2,1.5605641E-2,-4.767071E-2,1.6680479E-2,1.3111725E-1,5.4853577E-2,-3.9453506E-3,1.159668E-2,1.6249698E-1,6.813288E-2,2.644828E-1,6.416931E-2,6.401539E-4,1.996917E-2,1.6386406E-3,-1.9109344E-1,5.279718E-2,9.316292E-3,-1.21840164E-1,5.52423E-2,2.3807485E-2,8.944179E-3,5.3614058E-2,3.0855032E-2,7.448218E-2,-4.2906024E-2,-1.6941164E-1,-1.9343378E-2,8.859859E-2,-1.4235197E-2,1.4875107E-1,-4.9368298E-1,-1.1068815E-1,1.2452753E-2,-2.1246846E-1,1.5663624E-2,3.0695233E-1,2.6054683E-3,4.4449307E-2,-1.7779306E-1,1.0097787E-1,3.4086093E-2,1.3598293E-1,3.607081E-2,-1.0512332E-2,2.546072E-3,4.5229275E-2,-6.145011E-2,9.557724E-3,1.980432E-2,3.65448E-3,-1.1509736E-2,7.631147E-2,-2.4175167E-2,1.0198752E-2,-8.51059E-3,1.8751144E-2,1.1519919E-1,1.9539487E-1,8.16225E-2,3.4236908E-4,3.1017718E-1,1.7416996E-1,1.3778369E-2,-1.9387245E-2],"categories":[],"categories_nodes":[],"categories_segments":[],"categories_sizes":[],"default_left":[1,1,1,1,1,1,1,1,1,1,1,1,1,1,1,1,1,1,1,1,1,1,1,0,0,1,1,1,1,1,1,1,1,1,1,1,1,1,1,1,1,1,1,1,1,1,1,1,1,1,0,1,1,1,1,1,1,0,1,0,0,0,0,0,0,0,0,0,0,0,0,0,0,0,0,0,0,0,0,0,0,0,0,0,0,0,0,0,0,0,0,0,0,0,0,0,0,0,0,0,0,0,0,0,0,0,0,0,0,0,0],"id":18,"left_children":[1,3,5,7,9,11,13,15,17,19,21,23,25,27,29,31,33,35,37,39,41,43,45,-1,-1,47,49,51,53,55,57,59,61,63,65,67,69,71,73,75,77,79,81,83,85,87,89,91,93,95,-1,97,99,101,103,105,107,-1,109,-1,-1,-1,-1,-1,-1,-1,-1,-1,-1,-1,-1,-1,-1,-1,-1,-1,-1,-1,-1,-1,-1,-1,-1,-1,-1,-1,-1,-1,-1,-1,-1,-1,-1,-1,-1,-1,-1,-1,-1,-1,-1,-1,-1,-1,-1,-1,-1,-1,-1,-1,-1],"loss_changes":[4.8870945E-1,4.00218E-1,3.7618792E-1,5.804367E-1,6.6502786E-1,1.4644447E-1,2.1524191E-1,5.0582886E-1,7.622312E-1,2.509357E-1,5.042715E-1,3.0081242E-2,6.735818E-2,9.942371E-2,1.7875624E-1,4.8773956E-1,5.446639E-1,2.9237694E-1,1.1625423E0,1.2102923E0,4.2341596E-1,6.1714506E-1,5.612724E-1,0E0,0E0,2.0649793E-2,2.1855488E-2,2.0348445E-2,6.9925785E-2,1.2798071E-1,7.516117E-3,4.8140955E-1,9.255619E-1,5.652993E-1,6.759336E-1,1.6631387E-1,1.3560033E-1,7.057365E-1,1.3315079E0,2.5170442E-1,7.2303784E-1,1.4810434E-1,1.7152563E-1,1.681903E-1,1.1069562E0,1.0337225E0,8.0835986E-1,3.753562E-3,9.2616305E-3,9.038998E-5,0E0,3.0782685E-2,2.8217498E-3,8.78867E-4,2.3866296E-3,5.458867E-3,2.851224E-2,0E0,1.3196217E-3,0E0,0E0,0E0,0E0,0E0,0E0,0E0,0E0,0E0,0E0,0E0,0E0,0E0,0E0,0E0,0E0,0E0,0E0,0E0,0E0,0E0,0E0,0E0,0E0,0E0,0E0,0E0,0E0,0E0,0E0,0E0,0E0,0E0,0E0,0E0,0E0,0E0,0E0,0E0,0E0,0E0,0E0,0E0,0E0,0E0,0E0,0E0,0E0,0E0,0E0,0E0,0E0],"parents":[2147483647,0,0,1,1,2,2,3,3,4,4,5,5,6,6,7,7,8,8,9,9,10,10,11,11,12,12,13,13,14,14,15,15,16,16,17,17,18,18,19,19,20,20,21,21,22,22,25,25,26,26,27,27,28,28,29,29,30,30,31,31,32,32,33,33,34,34,35,35,36,36,37,37,38,38,39,39,40,40,41,41,42,42,43,43,44,44,45,45,46,46,47,47,48,48,49,49,51,51,52,52,53,53,54,54,55,55,56,56,58,58],"right_children":[2,4,6,8,10,12,14,16,18,20,22,24,26,28,30,32,34,36,38,40,42,44,46,-1,-1,48,50,52,54,56,58,60,62,64,66,68,70,72,74,76,78,80,82,84,86,88,90,92,94,96,-1,98,100,102,104,106,108,-1,110,-1,-1,-1,-1,-1,-1,-1,-1,-1,-1,-1,-1,-1,-1,-1,-1,-1,-1,-1,-1,-1,-1,-1,-1,-1,-1,-1,-1,-1,-1,-1,-1,-1,-1,-1,-1,-1,-1,-1,-1,-1,-1,-1,-1,-1,-1,-1,-1,-1,-1,-1,-1],"split_conditions":[5E-1,5E-1,6.4817004E-2,5.9760894E3,2.198697E0,1.1382782E1,4.5E0,2.6197806E-1,5.5E0,1.83E2,1.0210477E4,5E-1,1.9353424E1,3.479921E1,2.6459426E-1,5E-1,4.05E1,3.642241E0,1.3319603E1,1.1631762E1,1.2448535E1,4.5E0,1.698095E1,-1.0835982E-2,-8.810406E-2,7.871006E0,2.5E0,1.05E1,1.5E0,1.7362064E1,1.47209015E1,2.3340371E-1,1.4876205E1,7.5E0,3.06E2,9.47019E0,1.4369331E1,7.5E0,3.833249E0,1.6211609E1,1.68E2,1.6478367E1,4.7907424E-1,1.5E0,5.8653887E3,1.5073958E1,8.242229E0,1.15E1,7.5E0,5E-1,3.9335176E-2,1.5E0,1.4247745E1,1.5E0,7.5E0,2.8454165E3,3.6233208E1,1.9250793E-2,5E-1,5.9907516E-3,4.915922E-4,-5.7328034E-2,1.5839154E-2,2.7948876E-3,-3.655205E-2,1.6572692E-2,7.142246E-3,2.6832537E-3,1.6084218E-2,9.25651E-3,2.2344654E-2,-1.2871807E-2,-5.0823495E-2,-5.8030137E-3,2.6579577E-2,-4.270559E-3,4.462532E-2,-1.481049E-1,-3.3206448E-2,3.7358261E-3,-6.3740544E-2,4.6990872E-3,9.2085704E-2,7.816405E-4,1.3334793E-2,-5.333792E-2,3.0293362E-2,1.0225829E-2,4.079488E-2,1.0821243E-2,-3.1537E-3,7.6382165E-4,1.3568783E-2,-1.8435033E-2,2.8673173E-3,5.941296E-3,1.0963441E-3,-3.452921E-3,2.2893442E-2,-7.25255E-3,3.0596259E-3,-2.553177E-3,5.6253434E-3,3.455976E-2,5.8618464E-2,2.4486752E-2,1.0271073E-4,9.3053155E-2,5.225099E-2,4.133511E-3,-5.8161737E-3],"split_indices":[21,18,4,5,10,8,7,4,7,3,5,0,6,6,4,13,3,10,8,9,9,7,6,0,0,9,7,2,7,6,8,4,6,7,3,9,8,7,10,8,3,8,4,7,5,8,9,2,3,0,0,7,6,2,3,5,6,0,0,0,0,0,0,0,0,0,0,0,0,0,0,0,0,0,0,0,0,0,0,0,0,0,0,0,0,0,0,0,0,0,0,0,0,0,0,0,0,0,0,0,0,0,0,0,0,0,0,0,0,0,0],"split_type":[0,0,0,0,0,0,0,0,0,0,0,0,0,0,0,0,0,0,0,0,0,0,0,0,0,0,0,0,0,0,0,0,0,0,0,0,0,0,0,0,0,0,0,0,0,0,0,0,0,0,0,0,0,0,0,0,0,0,0,0,0,0,0,0,0,0,0,0,0,0,0,0,0,0,0,0,0,0,0,0,0,0,0,0,0,0,0,0,0,0,0,0,0,0,0,0,0,0,0,0,0,0,0,0,0,0,0,0,0,0,0],"sum_hessian":[2.9995E4,2.9889E4,1.06E2,2.6378E4,3.511E3,2.8E1,7.8E1,2.3683E4,2.695E3,3.44E2,3.167E3,2E0,2.6E1,4.7E1,3.1E1,2.0574E4,3.109E3,1.752E3,9.43E2,2.11E2,1.33E2,8.73E2,2.294E3,1E0,1E0,1.9E1,7E0,2.8E1,1.9E1,2.4E1,7E0,1.9941E4,6.33E2,3.29E2,2.78E3,1.417E3,3.35E2,2.01E2,7.42E2,1.89E2,2.2E1,1.24E2,9E0,5.31E2,3.42E2,7.63E2,1.531E3,9E0,1E1,3E0,4E0,2E1,8E0,4E0,1.5E1,5E0,1.9E1,4E0,3E0,1.8387E4,1.554E3,1.5E1,6.18E2,2.93E2,3.6E1,1.223E3,1.557E3,1.329E3,8.8E1,2.31E2,1.04E2,1.36E2,6.5E1,6.02E2,1.4E2,1.8E2,9E0,7E0,1.5E1,1.22E2,2E0,3E0,6E0,1.26E2,4.05E2,1.4E1,3.28E2,6.46E2,1.17E2,8.93E2,6.38E2,7E0,2E0,8E0,2E0,2E0,1E0,5E0,1.5E1,3E0,5E0,1E0,3E0,8E0,7E0,4E0,1E0,1.1E1,8E0,2E0,1E0],"tree_param":{"num_deleted":"0","num_feature":"25","num_nodes":"111","size_leaf_vector":"0"}},{"base_weights":[1.48485135E-2,5.077811E-3,1.6177107E-2,6.7494744E-3,-1.1035629E-2,1.5684554E-2,4.4680458E-2,-4.8700706E-3,9.36647E-3,-6.089715E-3,-3.252827E-2,1.3299457E-3,1.6904267E-2,3.373844E-2,2.5502408E-1,-2.922213E-3,-2.530384E-2,8.294416E-3,2.0589452E-2,-4.1035257E-2,-1.9787857E-3,-5.974741E-2,-7.5546713E-3,7.964621E-3,-6.4243376E-2,1.6704265E-2,1.0500613E-1,1.3612863E-2,5.738842E-2,-3.5308838E-2,2.7053085E-1,-5.2805925E-3,3.404282E-2,-3.8578253E-2,-1.1583894E-2,9.35291E-3,-2.4572335E-2,3.1970747E-2,7.557449E-3,-4.2385243E-2,-1.5206973E-2,3.321233E-2,-5.5514267E-3,-2.2919549E-2,-7.209756E-2,-3.941324E-2,2.6622323E-2,9.46401E-3,-2.0440784E-1,-1.2915058E-1,-1.6611142E-2,7.0628794E-3,1.8186174E-2,1.22525305E-1,3.3478577E-2,3.1341713E-2,-5.3238597E-2,4.6001077E-2,1.1431104E-1,2.8310475E-1,1.0071913E-1,-2.3682788E-2,-3.1229272E-3,2.2348642E-2,4.2546377E-2,-4.3233335E-2,-2.8300112E-2,-1.8590419E-2,-2.6083726E-3,7.944775E-3,4.506826E-2,-4.9083274E-2,-1.3009413E-2,2.7734024E-2,5.1228434E-2,-2.5159908E-2,1.1864338E-2,-4.3171626E-2,-1.0969639E-2,1.962452E-2,9.28483E-2,2.2374209E-2,-1.0442205E-2,5.167961E-2,-5.1616397E-2,-2.4308205E-2,-8.472336E-2,-4.7524508E-2,4.923916E-2,6.496974E-2,-2.007918E-4,1.195164E-2,-6.838593E-2,-2.5303977E-2,-3.5431057E-1,-3.6848925E-2,-6.963928E-1,-7.3218034E-3,-3.4239388E-1,1.5507616E-2,-4.9229753E-3,7.819501E-2,1.7926069E-2,9.010783E-2,2.0863906E-1,7.05111E-2,1.3299836E-2,2.3253476E-3,5.267144E-2,-2.0339664E-2,-1.9719611E-1,6.363775E-2,-1.0076605E-3,3.9804142E-2,1.2663439E-1,1.5711975E-1,3.1687656E-1],"categories":[],"categories_nodes":[],"categories_segments":[],"categories_sizes":[],"default_left":[1,1,1,1,1,1,1,1,1,1,1,1,1,1,1,1,1,1,1,1,1,1,1,1,1,1,1,1,1,0,1,1,1,1,1,1,1,1,1,1,0,1,1,1,1,1,1,1,1,1,1,1,1,1,1,1,1,1,1,1,0,0,0,0,0,0,0,0,0,0,0,0,0,0,0,0,0,0,0,0,0,0,0,0,0,0,0,0,0,0,0,0,0,0,0,0,0,0,0,0,0,0,0,0,0,0,0,0,0,0,0,0,0,0,0,0,0],"id":19,"left_children":[1,3,5,7,9,11,13,15,17,19,21,23,25,27,29,31,33,35,37,39,41,43,45,47,49,51,53,55,57,-1,59,61,63,65,67,69,71,73,75,77,-1,79,81,83,85,87,89,91,93,95,97,99,101,103,105,107,109,111,113,115,-1,-1,-1,-1,-1,-1,-1,-1,-1,-1,-1,-1,-1,-1,-1,-1,-1,-1,-1,-1,-1,-1,-1,-1,-1,-1,-1,-1,-1,-1,-1,-1,-1,-1,-1,-1,-1,-1,-1,-1,-1,-1,-1,-1,-1,-1,-1,-1,-1,-1,-1,-1,-1,-1,-1,-1,-1],"loss_changes":[3.8930464E-1,9.68295E-2,3.7000942E-1,9.902464E-2,3.573156E-2,4.54463E-1,1.0225053E0,2.3767501E-2,3.1797305E-2,3.956859E-2,4.23735E-2,8.8541895E-1,4.1981316E-1,2.0245779E-1,1.0859859E-1,4.795308E-2,9.023573E-3,8.4663376E-2,3.402055E-2,3.66617E-4,3.1364232E-2,1.1992447E-2,3.8069498E-2,5.9039104E-1,5.75998E-1,3.4094667E-1,6.356567E-2,2.7663487E-1,1.2178826E-1,0E0,1.6325116E-2,2.0414226E-2,2.3307353E-3,2.047792E-5,1.649464E-3,1.1792885E-1,2.090123E-2,8.614734E-3,1.5657697E-2,1.9344687E-4,0E0,1.681531E-2,3.1100288E-2,2.1934364E-2,1.121486E-2,1.5283568E-2,1.74992E-2,3.5638058E-1,3.4006053E-1,4.110573E0,3.2736045E-1,3.221501E-1,3.2155848E-1,1.0123837E-1,8.0294525E-3,1.1375719E-1,2.2805548E-1,1.3686195E-1,2.4341017E-2,3.105247E-2,0E0,0E0,0E0,0E0,0E0,0E0,0E0,0E0,0E0,0E0,0E0,0E0,0E0,0E0,0E0,0E0,0E0,0E0,0E0,0E0,0E0,0E0,0E0,0E0,0E0,0E0,0E0,0E0,0E0,0E0,0E0,0E0,0E0,0E0,0E0,0E0,0E0,0E0,0E0,0E0,0E0,0E0,0E0,0E0,0E0,0E0,0E0,0E0,0E0,0E0,0E0,0E0,0E0,0E0,0E0,0E0,0E0],"parents":[2147483647,0,0,1,1,2,2,3,3,4,4,5,5,6,6,7,7,8,8,9,9,10,10,11,11,12,12,13,13,14,14,15,15,16,16,17,17,18,18,19,19,20,20,21,21,22,22,23,23,24,24,25,25,26,26,27,27,28,28,30,30,31,31,32,32,33,33,34,34,35,35,36,36,37,37,38,38,39,39,41,41,42,42,43,43,44,44,45,45,46,46,47,47,48,48,49,49,50,50,51,51,52,52,53,53,54,54,55,55,56,56,57,57,58,58,59,59],"right_children":[2,4,6,8,10,12,14,16,18,20,22,24,26,28,30,32,34,36,38,40,42,44,46,48,50,52,54,56,58,-1,60,62,64,66,68,70,72,74,76,78,-1,80,82,84,86,88,90,92,94,96,98,100,102,104,106,108,110,112,114,116,-1,-1,-1,-1,-1,-1,-1,-1,-1,-1,-1,-1,-1,-1,-1,-1,-1,-1,-1,-1,-1,-1,-1,-1,-1,-1,-1,-1,-1,-1,-1,-1,-1,-1,-1,-1,-1,-1,-1,-1,-1,-1,-1,-1,-1,-1,-1,-1,-1,-1,-1,-1,-1,-1,-1,-1,-1],"split_conditions":[1.5E0,1.4359343E1,5E-1,1.1871372E1,1.5546926E1,9.181182E-2,3.687636E0,1.1799376E1,1.3991566E1,1.44050045E1,6.647065E3,2.475E2,5E-1,3.0218198E0,1.4E1,1.17563095E1,1.1837032E1,1.3893198E1,1.4164461E1,5.8680886E-1,1.8131539E3,2.0532413E1,1.6107224E1,1.5148432E1,6.805314E0,1.2203364E1,1.4420737E1,1.3670734E1,8.258443E0,-1.0592652E-2,5.8886576E0,1.0765212E1,1.1773338E1,1.18272505E1,1.1854797E1,1.3794474E1,1.3920335E1,1.4128946E1,1.4181515E1,3.285E2,-4.562092E-3,4.4108095E0,1.4508885E1,4.560298E3,5E-1,2.17E2,1.648646E1,3.409942E3,1.917051E3,1.3147387E1,4.7450447E0,5.9996805E0,1.1742593E3,5.5E0,7.6942153E0,6.944826E0,1.04150265E-1,2.2865421E1,2.5E0,3.5E0,3.021574E-2,-7.104837E-3,-9.368782E-4,6.704593E-3,1.2763914E-2,-1.2970001E-2,-8.490034E-3,-5.5771256E-3,-7.8251184E-4,2.3834326E-3,1.3520478E-2,-1.4724983E-2,-3.9028241E-3,8.320208E-3,1.53685305E-2,-7.5479727E-3,3.5593016E-3,-1.2951489E-2,-3.2908919E-3,5.887356E-3,2.7854491E-2,6.712263E-3,-3.1326616E-3,1.5503884E-2,-1.548492E-2,-7.2924616E-3,-2.541701E-2,-1.4257353E-2,1.4771748E-2,1.9490924E-2,-6.023754E-5,3.5854923E-3,-2.0515779E-2,-7.591193E-3,-1.0629318E-1,-1.1054678E-2,-2.0891784E-1,-2.196541E-3,-1.0271817E-1,4.652285E-3,-1.4768926E-3,2.3458505E-2,5.3778207E-3,2.703235E-2,6.259172E-2,2.115333E-2,3.9899508E-3,6.976043E-4,1.5801433E-2,-6.1018993E-3,-5.9158836E-2,1.9091325E-2,-3.0229817E-4,1.1941243E-2,3.7990317E-2,4.7135927E-2,9.506297E-2],"split_indices":[7,8,17,8,8,4,10,8,8,8,5,3,21,10,3,8,8,8,8,4,5,6,8,8,9,8,8,8,9,0,10,8,8,8,8,8,8,8,8,3,0,10,8,5,0,3,8,5,5,8,10,9,5,7,9,9,4,6,7,7,0,0,0,0,0,0,0,0,0,0,0,0,0,0,0,0,0,0,0,0,0,0,0,0,0,0,0,0,0,0,0,0,0,0,0,0,0,0,0,0,0,0,0,0,0,0,0,0,0,0,0,0,0,0,0,0,0],"split_type":[0,0,0,0,0,0,0,0,0,0,0,0,0,0,0,0,0,0,0,0,0,0,0,0,0,0,0,0,0,0,0,0,0,0,0,0,0,0,0,0,0,0,0,0,0,0,0,0,0,0,0,0,0,0,0,0,0,0,0,0,0,0,0,0,0,0,0,0,0,0,0,0,0,0,0,0,0,0,0,0,0,0,0,0,0,0,0,0,0,0,0,0,0,0,0,0,0,0,0,0,0,0,0,0,0,0,0,0,0,0,0,0,0,0,0,0,0],"sum_hessian":[2.9995E4,3.591E3,2.6404E4,3.254E3,3.37E2,2.5957E4,4.47E2,5.98E2,2.656E3,2.75E2,6.2E1,2.033E3,2.3924E4,4.26E2,2.1E1,5.47E2,5.1E1,2.426E3,2.3E2,2.8E1,2.47E2,2.9E1,3.3E1,1.847E3,1.86E2,2.3871E4,5.3E1,2.31E2,1.95E2,1E0,2E1,5.15E2,3.2E1,2.5E1,2.6E1,2.351E3,7.5E1,1.22E2,1.08E2,2.6E1,2E0,2.2E1,2.25E2,8E0,2.1E1,1.7E1,1.6E1,1.835E3,1.2E1,7.8E1,1.08E2,3.181E3,2.069E4,4.2E1,1.1E1,1.83E2,4.8E1,1.64E2,3.1E1,1.8E1,2E0,5.3E1,4.62E2,1.5E1,1.7E1,1.5E1,1E1,1.4E1,1.2E1,2.263E3,8.8E1,2.3E1,5.2E1,1.02E2,2E1,1.2E1,9.6E1,2.5E1,1E0,1.9E1,3E0,3.3E1,1.92E2,2E0,6E0,5E0,1.6E1,1.6E1,1E0,6E0,1E1,1.779E3,5.6E1,6E0,6E0,6.8E1,1E1,1.06E2,2E0,1.866E3,1.315E3,8.8E1,2.0602E4,3.2E1,1E1,3E0,8E0,7.8E1,1.05E2,4E1,8E0,1.19E2,4.5E1,5E0,2.6E1,5E0,1.3E1],"tree_param":{"num_deleted":"0","num_feature":"25","num_nodes":"117","size_leaf_vector":"0"}},{"base_weights":[1.0389905E-2,1.0273642E-2,1.0425101E-1,7.3362165E-3,1.2851599E-2,-3.6084056E-2,1.3819866E-1,7.104225E-3,1.6921277E-1,1.0444289E-2,2.4351636E-2,3.8362775E-2,-2.7860594E-1,1.9357681E-2,1.5573737E-1,7.3944014E-3,-1.4899394E-1,-7.221961E-2,2.160667E-1,1.3501448E-2,-1.1194214E-2,1.7848127E-2,5.675993E-2,-5.66864E-3,4.664612E-2,-2.8377533E-2,3.8385868E-2,4.188299E-2,1.6876693E-1,1.4804037E-2,4.411496E-3,6.026727E-2,-4.3982896E-1,-1.1147054E-1,2.276659E-2,3.324243E-1,1.2237852E-1,1.4137611E-2,-9.2666045E-2,-7.332163E-2,5.797935E-3,2.3361117E-2,-3.986649E-2,6.302494E-2,-2.3209448E-1,4.750252E-3,5.2677155E-2,1.2641788E-1,2.3236918E-1,2.0503651E-2,1.8737749E-3,8.897991E-3,-4.1500335E-3,2.1220255E-1,8.882009E-3,-6.6083E-1,1.121304E-1,-1.3347435E-1,-3.373146E-2,9.176159E-2,3.5724115E-1,1.7594576E-2,1.5947318E-1,1.4527552E-2,-8.539505E-2,-1.4421508E-1,1.2014907E-1,-5.275055E-2,-7.695206E-1,-2.9343778E-1,9.32765E-3,6.17878E-2,1.473116E-2,-1.5998201E-1,4.228811E-3,4.286506E-2,2.0197734E-1,-3.2919068E-2,-5.2262783E-1,1.513958E-1,7.267543E-2],"categories":[],"categories_nodes":[],"categories_segments":[],"categories_sizes":[],"default_left":[1,1,1,1,1,1,1,1,1,1,1,1,0,1,1,1,1,1,1,1,1,1,1,0,0,0,0,1,1,1,1,1,1,1,0,1,1,1,1,1,1,1,1,1,1,0,0,1,0,0,0,0,0,0,0,0,0,0,0,0,0,0,0,0,0,0,0,0,0,0,0,0,0,0,0,0,0,0,0,0,0],"id":20,"left_children":[1,3,5,7,9,11,13,15,17,19,21,23,-1,25,27,29,31,33,35,37,39,41,43,-1,-1,-1,-1,45,47,49,51,53,55,57,-1,59,61,63,65,67,69,71,73,75,77,-1,-1,79,-1,-1,-1,-1,-1,-1,-1,-1,-1,-1,-1,-1,-1,-1,-1,-1,-1,-1,-1,-1,-1,-1,-1,-1,-1,-1,-1,-1,-1,-1,-1,-1,-1],"loss_changes":[3.2626343E-1,2.267797E-1,1.812565E-1,5.247793E-1,4.414463E-1,1.5512797E-1,5.951476E-2,6.346576E-1,2.4184531E-1,8.7303114E-1,5.809165E-1,2.8175106E-3,0E0,5.6308694E-3,3.150183E-2,3.0852616E-1,1.60888E0,1.745099E-2,1.4464104E-1,7.822051E-1,1.7254037E0,7.3306364E-1,8.4888804E-1,0E0,0E0,0E0,0E0,1.3530385E-3,3.2574713E-2,2.9526746E-1,3.824594E-1,1.2303096E-1,1.4159188E0,6.2938407E-4,0E0,9.026468E-3,3.9950296E-2,4.4734502E-1,7.742858E-1,4.9862776E0,1.3589191E0,6.9582474E-1,1.065279E0,1.2575135E0,5.614665E-1,0E0,0E0,1.0475248E-2,0E0,0E0,0E0,0E0,0E0,0E0,0E0,0E0,0E0,0E0,0E0,0E0,0E0,0E0,0E0,0E0,0E0,0E0,0E0,0E0,0E0,0E0,0E0,0E0,0E0,0E0,0E0,0E0,0E0,0E0,0E0,0E0,0E0],"parents":[2147483647,0,0,1,1,2,2,3,3,4,4,5,5,6,6,7,7,8,8,9,9,10,10,11,11,13,13,14,14,15,15,16,16,17,17,18,18,19,19,20,20,21,21,22,22,27,27,28,28,29,29,30,30,31,31,32,32,33,33,35,35,36,36,37,37,38,38,39,39,40,40,41,41,42,42,43,43,44,44,47,47],"right_children":[2,4,6,8,10,12,14,16,18,20,22,24,-1,26,28,30,32,34,36,38,40,42,44,-1,-1,-1,-1,46,48,50,52,54,56,58,-1,60,62,64,66,68,70,72,74,76,78,-1,-1,80,-1,-1,-1,-1,-1,-1,-1,-1,-1,-1,-1,-1,-1,-1,-1,-1,-1,-1,-1,-1,-1,-1,-1,-1,-1,-1,-1,-1,-1,-1,-1,-1,-1],"split_conditions":[1.768797E1,1.6105004E-1,1.8598537E1,1.0682316E1,3.8390377E0,1.8229439E1,5.4469297E3,1.0422295E1,1.5361017E1,7.5E0,8.0548115E0,1E2,-8.358178E-2,4.905332E3,1.455E2,5E-1,5.5E0,2.0225E3,1.1281921E1,1.151982E1,7.0600085E0,1.4891979E1,1.7E1,-1.7005921E-3,1.3993836E-2,-8.513261E-3,1.1515761E-2,2.338866E4,1.2319355E4,3.1357192E3,5.5E0,2.5E0,2.905E2,2.6E2,6.8299775E-3,2.39E2,3.5E0,3.8243122E0,1.719534E1,3.325E2,3.55E1,1.9168028E-1,4.253067E0,9.5E0,2.0225E3,1.4250756E-3,1.5803147E-2,5.763974E-1,6.971076E-2,6.1510955E-3,5.621325E-4,2.6693973E-3,-1.2450101E-3,6.366077E-2,2.6646028E-3,-1.9824901E-1,3.363912E-2,-4.0042307E-2,-1.0119438E-2,2.7528478E-2,1.0717235E-1,5.278373E-3,4.7841955E-2,4.3582655E-3,-2.5618518E-2,-4.3264523E-2,3.604472E-2,-1.5825165E-2,-2.3085618E-1,-8.803134E-2,2.798295E-3,1.853634E-2,4.419348E-3,-4.7994606E-2,1.2686433E-3,1.2859519E-2,6.0593206E-2,-9.87572E-3,-1.5678835E-1,4.541874E-2,2.180263E-2],"split_indices":[8,4,6,9,10,6,5,9,8,7,9,3,0,5,3,0,7,1,9,9,9,8,7,0,0,0,0,5,5,5,7,2,3,3,0,3,7,10,8,3,3,4,10,7,1,0,0,4,0,0,0,0,0,0,0,0,0,0,0,0,0,0,0,0,0,0,0,0,0,0,0,0,0,0,0,0,0,0,0,0,0],"split_type":[0,0,0,0,0,0,0,0,0,0,0,0,0,0,0,0,0,0,0,0,0,0,0,0,0,0,0,0,0,0,0,0,0,0,0,0,0,0,0,0,0,0,0,0,0,0,0,0,0,0,0,0,0,0,0,0,0,0,0,0,0,0,0,0,0,0,0,0,0,0,0,0,0,0,0,0,0,0,0,0,0],"sum_hessian":[2.9995E4,2.9959E4,3.6E1,1.4005E4,1.5954E4,7E0,2.9E1,1.3986E4,1.9E1,1.3194E4,2.76E3,6E0,1E0,4E0,2.5E1,1.3961E4,2.5E1,3E0,1.6E1,1.1561E4,1.633E3,2.3E3,4.6E2,1E0,5E0,1E0,3E0,3E0,2.2E1,4.006E3,9.955E3,1.5E1,1E1,2E0,1E0,6E0,1E1,1.1493E4,6.8E1,3.5E2,1.283E3,2.1E3,2E2,4.51E2,9E0,1E0,2E0,1.5E1,7E0,2.78E3,1.226E3,6.532E3,3.423E3,3E0,1.2E1,7E0,3E0,1E0,1E0,1E0,5E0,3E0,7E0,1.1449E4,4.4E1,5.5E1,1.3E1,3.41E2,9E0,1.4E1,1.269E3,3.84E2,1.716E3,5.3E1,1.47E2,3.95E2,5.6E1,6E0,3E0,9E0,6E0],"tree_param":{"num_deleted":"0","num_feature":"25","num_nodes":"81","size_leaf_vector":"0"}},{"base_weights":[7.2616623E-3,6.130008E-3,1.6417662E-2,7.615171E-3,-1.7109575E-2,1.4411443E-2,1.8374749E-1,9.929864E-3,-4.39036E-3,-1.3385729E-2,-2.7250144E-1,-3.03755E-2,1.9227419E-2,3.2844082E-1,1.15173645E-1,4.146265E-3,1.4593332E-2,6.0293777E-3,-1.4705739E-2,-2.9777363E-1,-1.0289957E-2,-5.5908364E-1,-1.384675E-1,-1.8073015E-2,